2135 100
﻿ 0.044017 0.04589 -0.10366 -0.030396 -0.099008 -0.092081 -0.031537 0.17639 -0.039377 -0.071008 -0.0077542 0.033651 -0.12506 -0.062205 0.059048 -0.04297 -0.034661 -0.0028393 -0.087585 -0.0022919 0.078653 0.14296 -0.097881 0.088876 -0.090569 -0.09425 0.070639 0.051968 -0.01922 0.00010977 0.075872 -0.15573 -0.028086 0.046121 -0.11661 -0.097581 -0.058969 -0.10734 -0.28425 -0.13007 0.14953 -0.15773 -0.097459 0.10269 0.069548 0.01681 0.22231 0.026238 0.049903 -0.25328 -0.18942 -0.26249 -0.067207 0.17624 0.060331 -0.067859 0.075666 0.27963 -0.0050756 -0.049868 0.16846 -0.021335 0.33704 0.12717 0.1393 0.024447 -0.17986 0.093949 0.18993 -0.15388 -0.0076764 -0.10314 -0.12727 0.12839 0.020726 0.12339 0.24374 -0.017529 0.045083 0.07845 0.11069 -0.11642 -0.0067881 0.085295 0.23001 0.024589 0.13154 -0.030372 -0.073917 0.067842 0.0014672 -0.063911 0.29462 0.10115 -0.073934 -0.042434 -0.018079 0.092868 -0.12709 0.016637 
怎 0.37021 -0.28176 0.4318 0.18426 -0.1607 -0.23191 0.057073 0.43487 -0.21359 -0.099622 -0.03699 0.39732 -0.13176 0.13799 -0.45263 -0.052953 0.14589 -0.042057 -0.22856 0.055409 0.040436 0.054424 -0.48713 0.17059 -0.15606 -0.23251 0.034021 0.11886 -0.24697 -0.099018 -0.01244 -0.10549 -0.41238 -0.0072257 -0.089795 -0.035617 -0.0064873 -0.41476 -0.36132 0.15266 -0.0097881 0.12039 0.14079 0.24642 0.49715 0.1859 0.1928 -0.087933 -0.080129 -0.15591 -0.27258 -0.2401 0.24687 0.16993 -0.025338 -0.41134 -0.071952 0.52606 -0.073019 0.080084 0.51051 -0.15263 0.38605 0.12096 -0.25452 -0.33973 -0.020838 0.082745 -0.0097681 -0.019592 -0.37959 0.14982 -0.014685 0.21213 0.20278 0.22482 0.46974 0.077277 -0.069491 0.2036 0.32873 -0.033453 0.024869 -0.15729 0.4937 0.19767 -0.24768 -0.12186 -0.57616 -0.096967 0.25322 -0.20131 0.35974 -0.012105 -0.032657 -0.20101 -0.20591 -0.22696 -0.35969 0.33243 
么 0.73821 -0.29231 -0.042966 -0.048156 -0.03368 0.032311 -0.052675 0.61916 0.038302 -0.042763 -0.19328 0.18176 -0.033373 -0.24853 -0.54758 0.061733 0.23698 0.014261 0.0054959 0.088724 0.10641 0.2897 -0.02064 0.20654 -0.029564 -0.36941 0.23939 0.40697 0.22392 0.21577 0.36865 0.29926 -0.24158 0.25371 -0.2154 -0.096805 -0.15667 -0.33355 0.30424 -0.028427 -0.0584 -0.18527 -0.11066 -0.063161 0.36047 -0.27009 0.082627 -0.10905 -0.069132 -0.10916 0.05116 0.025069 -0.59282 0.49454 0.056108 -0.53998 -0.004588 0.45336 -0.09522 0.1583 0.041221 0.057585 -0.057667 0.009017 -0.10591 0.1146 0.35461 0.49091 0.24965 -0.7323 -0.16357 -0.04071 0.08106 0.39058 0.0087405 0.038175 0.1497 -0.020732 0.26895 0.3385 0.56491 -0.14916 -0.15547 0.11496 -0.090335 0.23382 0.16871 0.15815 -0.23824 0.19654 0.10634 -0.2138 0.31396 -0.055788 0.15892 -0.20523 -0.54581 -0.14031 -0.68691 -0.0033511 
更 0.13059 0.076609 0.072052 0.055209 -0.22428 -0.38459 -0.67898 0.49872 -0.23576 0.28927 -0.36709 0.15984 -0.13468 -0.1688 0.071755 0.034132 0.23408 -0.014758 -0.11441 0.035073 0.4592 -0.28175 0.02434 0.30549 -0.26272 -0.035404 0.28472 -0.48271 0.48038 0.23197 -0.20595 0.050045 0.62667 -0.33134 -0.39543 0.10669 0.23924 0.11428 -0.068488 -0.67979 0.082633 -0.2781 -0.075256 -0.18551 -0.24748 -0.18098 0.71051 0.15792 0.11962 -0.37711 -0.28488 -0.49888 0.10192 0.54728 -0.17795 0.3579 0.061582 0.76228 0.38998 -0.38875 0.54025 -0.18925 0.67024 0.072923 0.1658 0.1139 -0.2603 0.32639 0.98565 0.10113 -0.062042 -0.1641 -0.082057 -0.0179 -0.29924 -0.0074927 0.69636 0.030657 -0.2971 0.16525 0.26868 -0.27241 -0.0069286 0.21134 0.48711 -0.29248 0.2344 -0.41079 -0.4001 0.25353 -0.27361 0.57485 0.59559 0.10434 0.14879 0.12349 -0.1144 0.070481 -0.12149 0.54671 
改 -0.093071 0.051182 -0.0798 0.43995 -0.18037 -0.79538 -0.90483 0.56282 -0.047085 -0.10009 -0.011501 0.11037 -0.55908 -0.2542 0.21077 0.028929 0.23552 0.13465 -0.4181 -0.095964 0.54749 -0.043644 0.076665 -0.26834 -0.23009 -0.52536 0.34128 -0.35837 0.18523 -0.32363 -0.32963 -0.12347 0.49149 0.13308 -0.24215 0.24751 0.1563 -0.2548 0.091733 -0.70303 0.20122 -0.55178 -0.053489 0.25657 0.083876 -0.23748 0.54254 0.53079 0.15566 -0.58782 -0.62017 0.25605 0.1018 0.47302 -0.057999 0.47488 0.32428 0.50497 0.6609 0.20116 0.82167 0.36596 0.63925 -0.25822 0.4323 -0.17698 -0.32278 0.39322 0.69199 0.19678 0.091867 0.0078854 -0.42572 0.11133 0.0092914 -0.19408 0.65803 -0.42553 0.067951 0.34167 0.39389 0.19478 0.41625 0.35956 0.13495 -0.56431 0.49847 -0.19025 0.031918 -0.21873 -0.51387 0.6895 1.026 0.49097 0.10476 0.44185 0.086163 0.56221 -0.84448 0.35086 
花 0.1519 0.12087 0.052131 0.048894 -0.27514 -0.27233 -0.11585 0.29311 0.13238 0.03346 0.06847 0.13124 -0.21178 -0.096657 -0.24615 0.22926 0.04535 0.23411 -0.079827 0.0044977 0.14094 0.12882 0.09745 -0.020886 -0.0095178 -0.13161 0.083739 -0.068592 -0.14925 0.22886 0.27838 -0.030439 -0.13553 -0.078008 -0.24593 -0.06058 -0.1453 -0.24836 -0.29728 0.23298 0.14539 -0.35361 0.21785 0.049967 -0.0078442 -0.10189 0.018998 -0.11666 0.22173 -0.13233 -0.16658 -0.076095 -0.39413 0.094086 -0.042055 -0.3623 0.065409 0.14152 0.024821 -0.20084 0.45498 -0.19425 0.014417 0.012128 0.031825 -0.014134 0.11829 0.041893 0.30139 -0.079928 -0.10294 -0.14872 -0.19669 0.41467 0.059887 0.05751 0.44491 0.17469 0.029968 0.031614 0.3523 -0.06736 0.024419 0.024452 0.01311 0.018326 -0.066859 0.068111 -0.031627 -0.047744 0.062513 -0.18719 0.2339 -0.010766 0.0094333 -0.15755 -0.09615 -0.015636 -0.27508 0.072862 
呗 0.19292 0.19847 0.086181 -0.18597 -0.21747 -0.10071 -0.098617 0.26338 0.011053 -0.061025 -0.11816 0.25771 -0.13998 -0.31453 0.040662 -0.30246 -0.235 -0.061289 -0.10626 -0.20141 0.039937 -0.1551 -0.064662 -0.32374 -0.081005 -0.00085901 -0.074036 -0.024741 -0.14779 0.14344 -0.051524 -0.15054 -0.36825 0.12905 -0.34976 -0.13241 0.076783 -0.041057 -0.26826 -0.099709 -0.11122 -0.08185 0.050125 -0.07427 0.36059 -0.18535 0.21143 0.0095286 0.52027 -0.34968 -0.28132 -0.20159 -0.39622 0.20684 0.29218 -0.055068 -0.1593 0.11067 0.031574 -0.12366 0.32159 -0.027854 0.039737 0.14578 0.082324 0.085325 0.14113 0.17462 0.20468 -0.30187 -0.24589 -0.11685 0.010509 0.29751 0.018885 0.11528 0.27246 0.13873 0.014307 -0.024184 0.48884 0.01396 0.13039 0.37589 0.13784 0.051951 0.11065 0.044872 -0.23619 -0.010552 0.058985 -0.24806 0.33445 -0.022618 0.23014 0.2215 -0.30471 0.20837 -0.053157 -0.046909 
手 0.052495 0.074082 -0.22886 -0.036847 -0.19233 -0.42162 0.19254 0.19214 0.38187 -0.3526 0.23732 0.094897 -6.4301e-05 0.31913 0.25556 -0.3386 0.30822 0.35489 -0.031192 -0.10623 0.058604 -0.13547 -0.29339 0.044183 -0.42962 -0.0045707 0.0024074 0.0042706 0.053035 0.13484 -0.12183 0.07176 0.21279 0.17428 0.09931 -0.35588 -0.21402 -0.73189 -0.34972 -0.066759 0.31967 -0.036657 -0.11219 -0.052144 0.072194 -0.24932 0.41409 0.049131 0.054141 -0.63817 -0.33946 0.10531 -0.35763 0.27836 -0.21234 -0.18336 0.53264 0.63759 -0.33264 0.15463 0.58323 -0.3937 0.28855 0.71223 0.75838 0.24796 -0.1708 0.21917 0.33237 -0.51784 0.32914 -0.049307 -0.19208 0.33966 0.3616 0.023121 0.0058423 -0.22582 0.1439 -0.083242 0.39509 -0.26626 0.042996 0.57383 0.21934 0.26655 0.31734 -0.019584 -0.27071 0.013364 -0.29809 -0.30938 0.39113 0.34642 -0.32809 -0.21766 0.056401 0.52879 -0.39384 -0.15161 
机 0.20546 0.18037 0.037049 0.048885 -0.15814 -0.072731 0.060151 0.16222 -0.083377 -0.080358 0.43929 -0.18056 -0.34731 -0.083113 -0.064853 -0.42446 0.16125 0.16258 -0.30438 -0.24031 0.12197 0.055048 -0.42038 -0.015039 0.0096985 -0.30342 -0.099783 0.019409 -0.28165 0.38723 -0.0087248 -0.26343 0.33453 0.4203 -0.34165 0.030977 0.081314 -0.40144 -0.35534 -0.43162 0.25929 0.041182 -0.098799 0.30045 0.071974 -0.24774 0.44551 0.37744 0.19503 -0.49608 -0.59386 -0.2806 -0.002904 -0.16819 0.035916 -0.015826 0.61835 0.31533 0.19245 -0.13415 0.31654 -0.36243 0.47997 -0.13994 0.32615 0.39483 0.085914 0.24336 -0.10449 -0.41451 0.13554 -0.37713 -0.25626 0.59313 0.38097 0.35458 0.42579 -0.20862 0.45185 0.04647 0.21324 -0.55298 -0.29786 0.19284 0.18556 0.42743 0.1247 -0.059185 -0.015064 0.063652 -0.22484 -0.38379 0.82815 0.30821 -0.51951 -0.23286 -0.045255 0.34755 0.29566 -0.053563 
号 0.068111 -0.1399 0.06595 0.029923 -0.11354 -0.41153 0.12291 0.45528 0.086608 -0.057931 -0.10809 0.085979 -0.34163 -0.11061 -0.21468 -0.40751 -0.04656 0.23834 -0.197 -0.079855 -0.0097221 -0.13504 0.084665 0.31759 -0.52176 -0.23111 0.30783 -0.32337 -0.19789 0.22625 0.30482 -0.22669 -0.23325 0.14641 -0.52995 -0.21243 -0.28725 -0.22558 -0.14192 -0.32209 0.70499 -0.22353 0.12843 0.012263 -0.019341 -0.057733 0.39512 0.055283 -0.19269 0.0023046 -0.12961 -0.46742 -0.15677 -0.24659 0.078256 0.08953 0.37743 0.572 -0.40726 -0.30019 0.36358 -0.26888 0.3077 -0.036129 0.65468 0.36088 0.03453 0.39675 -0.023301 -0.30294 0.17509 -0.44703 -0.10983 0.60043 0.15033 0.010705 0.20167 -0.22012 0.21209 -0.075943 -0.17702 0.12349 -0.13294 0.56172 0.15299 0.24235 0.040991 -0.08158 -0.25009 0.17703 -0.27579 -0.034943 0.38833 0.70743 -0.37953 0.10126 -0.48253 0.19797 -0.19569 0.49518 
码 0.72998 -0.006709 -0.43586 0.54423 0.021445 -0.21524 -0.027224 0.59822 0.089857 -0.14143 0.031973 0.42111 -0.047082 -0.026097 0.19032 -0.22123 0.070081 0.53079 0.13884 0.18462 0.057301 -0.18646 0.01625 0.18159 -0.22227 -0.63117 -0.16536 -0.29951 -0.065206 -0.30153 0.19407 0.34403 -0.087329 0.28511 -0.038155 -0.24554 -0.29379 -0.25752 -0.19186 -0.1061 0.43802 0.23068 -0.090531 0.014336 0.1127 -0.20228 0.28354 0.052339 0.33274 -0.49742 -0.36488 -0.060465 -0.0040202 0.265 -0.21051 -0.46019 0.42339 0.51325 -0.0015056 -0.44431 0.43511 -0.25333 1.1093 0.22902 -0.19463 0.023709 -0.35917 0.1594 0.42667 -0.16112 -0.050362 -0.37937 -0.44341 0.70985 0.35272 0.67986 0.070343 -0.062608 0.10507 0.16283 -0.042463 -0.57 -0.4827 0.25641 0.18218 0.19732 0.50369 0.38179 0.17143 0.30594 -0.038538 0.058378 0.50534 0.14053 0.12857 -0.28159 0.1294 0.15957 0.070865 0.037259 
</s> -0.21975 2.4933 1.5509 2.5441 -1.7878 -0.70417 -0.76765 -0.79007 1.4586 -0.91866 0.49152 -0.85851 -0.57899 -1.1775 -1.2195 0.96537 -0.19855 0.37677 -0.47082 1.1718 -2.2062 1.9588 0.074296 0.20011 0.73711 -0.43437 1.5098 1.7694 -0.43684 0.31999 0.027095 -0.38036 0.65639 1.1286 -0.33033 2.1058 1.4221 -0.74762 -0.81111 1.7099 1.1284 -0.44035 -0.050422 -0.36388 0.63096 0.88589 -0.92848 -1.6768 1.7216 -0.061488 2.953 -0.032717 0.36047 -0.88384 -1.8068 -0.22607 -0.26522 3.2511 -0.18566 1.074 2.0874 -1.4401 0.76431 -0.31523 1.0148 -0.067905 0.25673 3.4726 1.3597 -0.088843 0.28222 -2.9828 -0.67055 1.5878 -0.78795 0.884 -0.3996 -0.79101 1.2981 1.2005 -0.38793 -0.68563 1.2217 -0.32298 0.17388 1.4735 -0.32041 -1.1019 -0.49202 -1.5795 0.31318 0.17763 1.208 -0.1418 -0.54328 -1.2093 -1.1888 -0.49518 -0.83589 0.28473 
我 0.27603 -0.06674 -0.085068 0.027332 -0.41374 -0.11499 -0.23806 0.28594 0.19208 -0.069686 0.21971 -0.058628 -0.25349 -0.15321 -0.39357 -0.0065971 0.088826 -0.082225 -0.2927 -0.040403 -0.032112 0.11192 -0.15989 0.080866 -0.13728 -0.14203 0.25681 0.032382 0.01174 0.15312 0.20322 -0.065056 -0.078221 0.25534 -0.1001 -0.26527 -0.0074679 -0.27628 -0.2704 0.032182 0.26976 -0.037579 0.065528 0.039063 0.177 0.15358 0.51583 -0.039822 0.12446 -0.11194 -0.13313 -0.26429 -0.031411 0.067168 0.094318 -0.11117 0.079187 0.18525 -0.10305 -0.15088 0.43192 0.021655 0.26067 0.079294 0.13579 -0.0063663 0.037307 0.086388 0.41176 -0.13876 -0.073277 -0.11035 -0.046094 -0.010165 -0.18919 0.089059 0.31268 -0.14071 0.1516 0.11548 0.17492 -0.14518 0.12872 0.02757 0.026785 -0.052128 0.19265 0.051571 -0.0044198 -0.0071838 -0.078713 -0.060356 0.21209 0.17616 0.082608 -0.044463 -0.20165 0.21284 -0.27866 -0.015167 
的 0.34812 -0.12638 -0.050474 0.045208 -0.33441 -0.13549 -0.17856 0.3419 -0.035339 0.0083422 0.16939 0.0009762 -0.13837 -0.22242 -0.091751 0.063611 0.046431 0.019838 -0.16284 -0.070908 0.036021 0.068472 -0.045935 -0.060994 0.036454 -0.26902 0.096353 -0.10999 -0.25642 0.074397 0.1295 -0.18012 -0.1757 0.11917 -0.21686 -0.13071 0.012198 -0.21172 -0.20366 0.063667 0.06799 -0.25025 0.064834 -0.075517 0.15762 0.059322 0.34391 -0.10152 0.34931 -0.087591 -0.092459 -0.039334 -0.076438 0.11756 0.029323 -0.23664 0.041913 0.38155 0.060743 -0.12504 0.26156 -0.060327 0.1605 0.12187 0.050739 0.040483 -0.11622 0.026825 0.32002 -0.47202 -0.058558 -0.078529 -0.081743 0.17409 0.02577 -0.0152 0.15714 -0.017072 -0.026343 0.060675 0.25318 -0.24367 -0.082244 0.15017 0.061359 0.025091 -0.0048375 0.033358 -0.13178 0.16363 -0.013643 -0.27182 0.22057 0.12295 0.10559 0.13186 -0.20892 0.21829 -0.21425 0.025175 
是 0.42114 0.021686 -0.15872 -0.070626 -0.10923 -0.12808 -0.39202 0.010451 0.1707 -0.031054 0.25789 -0.11592 -0.2626 -0.052827 -0.19248 0.031544 0.024843 0.044962 -0.20146 -0.14061 0.013453 0.085378 0.012287 0.15396 0.1349 0.10135 -0.20169 0.033986 -0.11753 0.078625 0.15559 -0.30984 0.030856 0.093312 -0.14239 -0.13746 0.024934 -0.54754 -0.2466 -0.089435 0.037662 -0.2381 0.17106 -0.087728 -0.044344 -0.14528 0.077171 -0.16828 -0.039565 -0.21579 0.17753 -0.1585 -0.1691 0.40308 0.092538 -0.098249 0.23281 0.47297 0.17598 -0.12566 0.55032 -0.15874 -0.0035009 0.32494 0.16838 -0.021337 0.0022954 0.18191 0.29589 -0.19931 -0.13802 -0.20951 -0.25547 0.32801 0.12934 0.1038 0.13368 -0.10536 0.33921 0.048139 0.3456 -0.24636 0.3566 0.46592 -0.0090913 -0.11523 0.12304 0.039913 -0.35462 0.018611 -0.0027835 0.086435 0.13686 0.073177 0.27931 0.024243 -0.015135 0.24941 -0.29095 0.092572 
以 0.061772 0.03102 -0.40447 0.07238 -0.066345 -0.23541 -0.33863 0.13863 0.29471 -0.058555 0.017544 0.089109 0.03343 0.036752 0.19193 0.058832 -0.23228 -0.13776 -0.45361 -0.48946 0.22618 -0.048263 0.069643 -0.0099603 -0.29911 -0.16797 0.053747 -0.31014 -0.14275 0.078942 0.17865 -0.21859 0.045076 0.27347 -0.0025001 -0.12797 -0.079219 -0.20224 -0.19946 -0.19334 0.051783 -0.54347 -0.15962 0.33428 0.090838 -0.3206 -0.029755 0.11 0.23735 -0.01376 -0.36108 -0.41983 -0.15084 0.4007 0.060894 -0.14666 -0.22884 0.51872 0.013556 -0.37137 0.65007 -0.26479 0.30155 -0.053807 0.21304 -0.15799 -0.082723 -0.033503 0.29887 -0.038116 -0.094721 -0.32216 -0.28199 0.19274 0.041567 0.063958 0.50334 -0.033747 0.10636 -0.16644 0.32259 -0.21565 0.044349 -0.021911 0.22579 -0.012488 0.40958 0.19252 -0.17364 -0.085809 0.047232 -0.13927 0.0038192 0.086312 -0.19219 -0.48353 -0.4207 0.65656 -0.47654 -0.097645 
前 0.20957 0.017249 0.013154 -0.32739 -0.12592 -0.080809 -0.083491 -0.11987 0.2313 -0.17852 -0.33729 -0.18995 0.18308 -0.21193 -0.10496 -0.19036 -0.16854 0.11659 -0.082946 0.59697 0.058238 0.19961 -0.10839 0.062068 -0.49582 -0.19496 0.23648 0.050699 -0.068063 0.18833 0.05869 -0.29096 0.2596 0.090383 -0.46445 -0.16793 0.037309 -0.48482 0.045981 -0.16586 0.0062926 0.0412 -0.47025 -0.42483 0.19712 0.075266 0.6684 0.12716 0.18425 0.01759 -0.013261 -0.064054 -0.060235 0.14349 -0.1637 -0.070102 0.55966 0.50627 0.16732 -0.1035 0.61676 -0.21381 0.79072 0.67089 0.078135 -0.18452 0.21969 0.233 0.26479 -0.21369 -0.14268 0.03028 0.21908 0.19704 0.045243 0.12745 0.30022 0.038736 0.33753 0.1295 0.58209 -0.10704 0.2396 0.21059 -0.29478 0.056418 -0.19129 0.13708 0.21264 -0.026586 -0.064376 -0.11212 0.43303 0.42951 -0.20295 0.059579 -0.39174 0.54892 -0.22171 -0.18053 
成 0.32258 0.11726 0.27145 -0.22796 -0.070868 -0.041513 -0.089484 0.30872 0.26796 -0.56028 0.53079 -0.25616 0.042617 -0.29817 0.13072 -0.46424 0.21967 -0.082207 -0.088371 0.29275 0.053912 -0.43014 -0.29375 0.054519 0.57388 0.3896 0.5521 -0.25366 0.30988 0.18279 -0.043349 0.19558 0.012518 -0.022763 -0.36245 -0.3672 -0.12036 -0.060521 -0.14533 0.051835 -0.29477 -0.50137 0.54779 -0.05255 0.26046 -0.25211 0.26337 -0.20366 0.16466 -0.33971 -0.66145 -0.35969 -0.21546 0.63494 -0.53795 0.027027 0.11017 0.59761 0.066314 0.27217 0.80454 0.37936 0.4404 0.19358 0.52798 -0.70194 -0.45532 -0.020734 0.32639 -0.24783 -0.30125 -0.23865 -0.2075 0.28751 0.021506 0.20991 0.12569 0.080803 -0.058649 -0.055498 0.14155 -0.53953 0.16085 -0.27143 0.24993 -0.024609 -0.037619 -0.21541 0.0074533 0.31685 0.44488 0.31759 0.040116 0.096971 0.048575 0.20009 -0.32971 -0.082846 -0.15245 0.12298 
现 0.23716 -0.017628 0.13475 0.39325 -0.24145 -0.33908 -0.24161 -0.18233 0.069966 0.23117 0.20183 0.28351 -0.15627 -0.16396 -0.45699 0.038305 -0.14952 -0.15767 -0.1229 0.19618 -0.050095 0.33279 0.0051105 0.3195 -0.20697 -0.18907 0.060022 -0.073275 0.18111 -0.0057581 -0.076671 -0.15132 -0.019597 0.066132 -0.38983 -0.16821 0.011988 -0.17027 -0.14258 0.046703 0.2422 -0.18814 -0.090766 0.14779 0.2598 -0.1439 0.53796 -0.1161 0.19382 -0.24815 -0.44737 -0.17862 -0.19775 0.15577 -0.011412 0.098422 0.12728 0.6079 -0.13219 0.19685 0.12059 -0.10643 0.086711 0.21969 0.18084 -0.30633 -0.025911 0.11033 0.15838 -0.41213 0.021681 -0.13002 -0.073437 0.11024 -0.2205 0.18633 0.25211 0.25333 0.30745 -0.13486 0.37148 0.037943 0.032832 0.15386 -0.24472 0.28081 0.063038 -0.0066976 0.10885 -0.16646 -0.14815 -0.30558 0.62791 0.22764 0.0066517 0.022374 -0.38562 0.40291 -0.23237 -0.050102 
在 0.22486 -0.042119 -0.20863 -0.16079 -0.3073 -0.11863 -0.022752 0.25121 -0.037486 -0.035358 0.21605 0.025651 0.182 -0.14827 -0.17011 -0.26669 -0.090883 -0.28606 -0.063282 -0.37787 0.27248 0.095109 -0.019129 0.19079 -0.22423 -0.054849 0.16522 0.025117 0.037891 0.074617 -0.063497 -0.35676 -0.19203 0.014412 -0.20579 0.12044 -0.28779 -0.090809 -0.38561 -0.10913 0.27446 -0.091349 -0.047324 0.28931 0.3288 0.01516 0.55143 0.25772 0.30089 -0.28199 0.043452 -0.20733 -0.13658 0.30369 0.0035993 -0.31176 0.23838 0.58068 -0.26016 -0.098085 0.18538 -0.095361 0.35627 0.13585 0.30462 -0.098356 -0.0033145 0.1439 -0.068006 -0.253 -0.34482 -0.13456 -0.25566 0.3504 0.17551 0.075445 0.37834 0.17981 0.26744 -0.20227 0.45673 -0.037451 -0.048117 0.037987 -0.14996 -0.26262 -0.10085 0.063948 -0.018487 -0.066746 0.037668 -0.054592 0.26661 -0.13372 -0.13105 -0.00046213 -0.33865 0.11041 -0.21943 -0.34062 
支 0.42957 0.031271 0.027267 0.28396 -0.49263 -0.32564 -0.27178 0.29449 0.0079108 -0.15494 0.36635 -0.051329 -0.032145 -0.21888 -0.066956 0.2148 -0.037726 -0.1758 -0.071288 -0.17616 0.16915 0.1195 0.012829 0.16007 -0.37796 -0.037493 -0.025796 -0.055437 -0.22538 -0.15826 0.24448 -0.34886 -0.29015 0.31501 -0.23677 -0.15503 0.032416 -0.16729 0.019355 0.21955 0.41551 -0.29662 0.032901 -0.063626 0.14701 0.010055 0.48021 -0.33119 0.1481 -0.36125 0.31914 -0.1947 -0.51307 -0.15855 -0.12622 0.13727 0.043196 0.095603 -0.10523 -0.2254 0.19333 -0.26474 0.48325 -0.12203 0.19899 0.27474 0.20469 -0.081859 0.18326 0.12059 0.0057623 -0.51957 -0.047499 0.44426 -0.2504 0.26556 0.32423 -0.17857 -0.10825 -0.045547 0.43511 -0.10137 -0.095864 -0.1174 0.19728 0.01478 -0.084453 0.29881 0.066647 0.093928 0.18151 -0.22283 0.45561 -0.24373 -0.17944 -0.34682 0.38854 -0.024672 -0.081736 -0.017981 
付 0.24667 0.30787 -0.060964 0.099654 -0.23967 -0.2838 0.016723 0.25238 0.018812 -0.32128 0.18354 0.15885 -0.071164 -0.28199 -0.084187 0.18194 -0.11074 0.22196 -0.00067497 0.11919 0.53106 0.16809 -0.023222 0.26063 -0.20018 -0.10496 0.3031 -0.32015 -0.087656 -0.023191 0.38351 -0.50876 -0.049999 0.067132 0.10613 -0.2682 -0.14603 0.021267 -0.23371 -0.22614 0.27296 -0.25129 -0.039692 0.044893 0.061087 -0.1476 0.42351 -0.061265 0.13242 -0.4328 -0.25106 -0.084814 -0.25881 -0.34264 -0.018008 -0.37776 0.27366 0.12097 -0.20383 -0.24337 0.47026 -0.33164 0.70459 -0.23307 0.26566 0.086119 0.14775 -0.028956 0.41956 -0.076793 -0.26817 -0.44781 -0.15819 0.19936 0.048725 0.27065 0.43209 0.066598 -0.32042 0.077833 0.47934 -0.073083 -0.19097 -0.17784 0.15174 -0.3845 0.38412 0.057102 0.2194 -0.21584 0.28584 -0.14419 0.34172 -0.23246 -0.0097577 -0.08871 0.33291 0.019539 -0.063846 0.037312 
宝 0.35778 -0.048318 -0.10402 0.096703 -0.49495 -0.44346 0.026177 0.31211 0.032457 -0.3855 0.12686 -0.15913 -0.22928 0.071086 0.099401 -0.036083 -0.028881 -0.30182 -0.012972 -0.31459 0.10633 0.18645 -0.062303 0.026795 -0.41803 -0.1357 0.10942 -0.16175 -0.0097805 -0.0032534 0.15843 -0.41137 -0.38735 0.18476 0.34434 -0.017374 -0.23118 -0.037761 -0.35146 -0.19581 0.35578 0.17749 -0.1848 0.086587 0.15302 -0.066376 0.66067 -0.13079 0.1934 -0.15266 -0.33962 -0.42194 -0.21516 0.0026551 0.084382 -0.22726 0.45656 -0.083742 -0.35516 -0.34231 0.36594 -0.23524 0.35883 -0.32403 0.45072 -0.15685 -0.012579 0.23963 0.21019 -0.51636 -0.25269 -0.20149 -0.003247 -0.02381 0.21025 0.33726 0.026952 -0.035156 -0.099185 -0.013725 0.61655 -0.11184 -0.19048 0.41133 0.21557 0.1005 0.059074 -0.11306 -0.069646 0.12434 0.12994 -0.015689 0.013706 -0.20124 -0.20593 -0.068686 0.075953 0.026901 -0.31031 -0.093561 
也 0.577 -0.087322 -0.0086854 -0.068765 -0.43312 -0.1642 -0.26369 0.38746 0.2363 0.037335 -0.051483 -0.45726 0.2864 0.030924 -0.4898 -0.040224 -0.11281 -0.38533 -0.60332 0.044245 0.081971 -0.020083 0.13841 0.40285 -0.35115 0.11879 -0.42267 -0.024969 -0.079037 -0.27434 0.50839 -0.2786 -0.17399 -0.22186 -0.058237 -0.35169 -0.27928 0.20411 -0.046536 -0.11508 0.25326 -0.11752 0.071445 0.25172 0.033075 0.22602 0.83594 0.2506 0.19365 -0.33917 -0.048141 -0.45128 -0.12218 0.32292 0.42269 -0.25971 0.32188 -0.044318 -0.013316 0.24566 0.32128 -0.68229 0.36262 -0.065454 0.59098 0.0083001 0.26908 -0.2638 -0.078134 -0.60811 0.39004 -0.12164 -0.23012 0.15853 -0.17356 0.013683 0.47268 -0.47139 0.045258 -0.018562 0.44055 -0.13947 0.17908 -0.19801 -0.11838 0.0078366 0.37884 -0.082338 0.077514 0.69954 -0.12815 0.030475 0.19781 0.1056 -0.037651 -0.14534 0.059559 0.11156 -0.2282 0.072345 
开 0.24603 0.079037 -0.27983 0.29696 -0.47912 -0.30245 -0.51823 0.43891 0.59274 -0.39275 0.30155 -0.23202 -0.16628 -0.10481 -0.39062 -0.46026 0.10161 0.11118 -0.17785 0.0909 0.14753 -0.13466 0.0016348 0.47676 -0.29404 -0.16736 0.04348 -0.21348 0.28133 -0.20921 0.19857 0.19291 -0.4617 0.27328 -0.29999 -0.18496 -0.19074 0.036093 0.086314 -0.26115 0.45296 -0.073188 -0.19666 -0.2166 -0.18689 -0.011474 0.62722 -0.54485 0.28172 -0.32987 0.14315 -0.25922 -0.20698 0.46284 0.33582 -0.3201 0.27514 -0.11099 -0.014504 -0.21665 0.0816 -0.009363 0.15724 0.099956 0.056989 0.32864 0.34137 -0.20313 0.48845 -0.2136 -0.073649 -0.49119 -0.13357 0.36631 0.0040202 0.42485 0.29132 -0.7067 0.14574 0.085578 0.0077491 -0.33643 0.26393 0.1179 0.02755 -0.11429 -0.034313 0.37513 -0.27587 0.12349 0.029783 -0.38467 0.098517 -0.20868 -0.59791 0.021113 -0.23818 -0.006566 -0.17447 0.12983 
不 0.09761 -0.34062 -0.16248 -0.0096017 -0.040772 -0.20397 0.067755 0.033871 -0.10438 0.10173 -0.17164 0.067699 0.26527 -0.36836 -0.058729 -0.053894 0.40523 -0.050374 -0.22883 0.024303 -0.0096117 -0.020574 0.020905 -0.12442 -0.3478 0.076278 0.071156 -0.057696 0.012927 0.1294 0.13468 0.17983 0.045752 0.26258 -0.23883 -0.25764 0.090778 -0.023761 0.20001 -0.11678 0.14119 -0.06018 0.30886 0.056102 0.34767 0.059159 0.23432 -0.16802 0.036148 -0.56167 -0.27355 -0.19732 -0.096878 0.21069 0.1984 -0.48583 0.34888 0.091019 -0.030348 -0.016042 -0.013915 -0.01919 0.15429 0.079061 0.16412 0.022162 0.093047 -0.10824 0.35545 0.018495 -0.026249 -0.064426 -0.16138 0.17218 0.13804 0.30717 0.88792 -0.055657 0.36027 0.11124 0.35419 -0.11111 -0.07216 0.33795 0.028548 0.24541 0.015787 -0.58965 -0.13732 0.030528 0.00023527 -0.12884 0.046033 -0.096986 -0.1528 -0.11328 -0.26404 0.1936 -0.12664 -0.031033 
了 0.51434 -0.33011 0.055683 -0.40957 -0.0015605 -0.24927 -0.22552 0.13155 0.22331 0.057485 0.39062 0.03078 0.46972 -0.1009 -0.48983 0.52439 0.36896 0.15312 -0.13855 0.93431 -0.2168 0.25963 -0.24312 -0.3968 0.07327 -0.26371 0.20759 0.05434 0.17789 -0.17287 -0.072556 0.15295 -0.2098 -0.63767 -0.51209 0.086882 -0.40032 -0.32373 -0.46253 0.47905 0.065809 -0.1041 0.3948 0.24898 -0.24896 0.21491 1.098 -0.036449 0.09429 0.15 -0.062001 -0.2798 0.13441 0.36423 0.17731 -0.32648 0.18613 0.15152 0.14594 0.17001 0.42853 0.24678 0.72304 0.15706 0.38131 0.695 -0.093999 -0.19533 -0.22095 -0.55042 0.047863 0.3079 0.20032 0.42551 0.37861 -0.29515 0.28567 0.47941 0.45173 -0.13373 0.52672 -0.31194 0.41582 -0.18459 -0.58926 0.38493 0.12359 -0.13285 0.082408 0.38023 -0.27838 -0.26778 0.46414 0.11853 -0.1322 -0.040767 -0.0057069 0.39732 -0.2356 -0.47101 
就 0.39899 -0.023812 -0.14181 0.08868 -0.26693 -0.025933 -0.3203 0.091975 0.075035 0.12879 0.033907 -0.11657 -0.2195 -0.077143 -0.10657 0.071816 0.082007 -0.20001 -0.28627 0.13666 -0.094251 0.021409 0.074494 0.27387 -0.36051 0.060207 0.15279 0.046504 -0.13837 -0.11356 0.038878 -0.20952 0.023928 0.35085 -0.077175 -0.12456 0.087678 -0.24963 -0.11034 -0.0021397 0.22648 -0.19457 -0.11892 -0.015759 0.14074 -0.0063009 0.32856 -0.17416 0.22144 -0.27199 0.04894 -0.40449 -0.030758 0.19085 0.22464 -0.28658 0.16038 0.21232 0.13373 0.24209 0.46765 -0.052444 0.2741 0.13655 0.066689 0.01239 0.38748 -0.014332 0.22632 -0.46965 0.09691 -0.10239 -0.15694 0.1949 0.054481 0.085616 0.25799 -0.13849 0.21574 -0.034771 0.088557 -0.17504 0.11801 -0.0085952 0.1077 -0.017163 0.32929 0.082599 -0.14998 0.0054516 -0.10049 0.072162 0.0078484 0.03576 -0.055043 -0.044202 -0.30792 0.30377 -0.22657 0.016486 
这 0.51306 0.091517 0.24668 -0.053977 -0.25198 -0.022768 -0.2512 0.11745 0.15104 -0.077873 0.42818 0.084908 -0.081197 0.13948 -0.39737 0.24809 0.096708 0.087482 -0.34776 0.12486 -0.22669 0.031489 -0.001559 -0.11953 -0.18874 -0.20798 0.11947 -0.34796 0.070641 0.043385 0.18049 -0.16608 0.035841 0.15698 0.099435 -0.31449 -0.05077 -0.59295 -0.22895 -0.043091 0.27852 -0.050273 -0.11201 -0.090113 -0.0719 -0.35241 0.28604 -0.09867 0.23792 -0.13809 0.065658 -0.18738 -0.16358 0.092151 0.3324 0.13099 -0.13037 0.58813 0.14122 0.057736 0.26232 -0.13615 0.33696 -0.07645 0.085401 -0.18066 0.051397 0.20792 0.26787 -0.56954 -0.12896 -0.13357 -0.1587 0.30571 -0.35612 0.13233 0.22929 -0.030806 -0.11602 0.18717 0.10758 -0.12796 -0.20661 0.032806 -0.0051878 0.1562 -0.098224 -0.035262 -0.19715 0.085836 0.20718 -0.23359 0.052106 0.099315 0.079521 -0.010851 -0.28341 0.45281 -0.12081 -0.099605 
样 0.40908 -0.25086 0.0074655 0.13477 0.062115 -0.382 -0.0013031 0.22563 -0.093136 -0.061369 0.20806 0.27693 -0.33644 -0.28733 -0.25128 0.18713 0.37426 0.037381 -0.22973 0.022922 0.095355 0.19819 -0.6902 0.11472 -0.24757 -0.36871 0.034387 -0.12137 -0.087641 0.058709 0.044543 0.079885 -0.26443 0.14037 0.098807 -0.084996 0.13201 0.016361 0.043953 -0.16716 0.093345 -0.15801 -0.16626 -0.062095 0.15258 -0.22548 0.0020962 -0.026277 0.097333 -0.35564 -0.3316 -0.46772 -0.22636 0.7285 0.29022 -0.44748 -0.21948 -0.095815 0.11853 -0.4307 0.51377 -0.24551 -0.026447 0.22555 0.12964 -0.095293 -0.074436 -0.1447 0.65235 -0.078307 -0.19458 0.18681 0.24953 0.034189 0.42402 -0.36783 0.32448 0.20517 -0.10613 0.058594 0.62026 -0.20694 -0.26296 0.39026 0.40164 0.014655 -0.054347 0.35016 -0.18984 -0.15152 0.056033 -0.12288 0.12905 0.32501 -0.27227 -0.073754 -0.27355 -0.36293 -0.24738 0.38242 
完 -0.053836 0.23907 0.25678 -0.21341 0.17666 0.18886 -0.21933 0.4527 0.1577 0.17366 0.427 0.20244 -0.08467 0.19911 0.23676 -0.22744 0.09203 0.0030068 -0.42276 0.11282 -0.85376 0.071475 0.27649 -0.25554 -0.16311 -0.19757 -0.023936 0.12523 -0.010949 0.023384 0.29345 0.077808 -0.2828 0.22602 -0.31965 -0.092152 -0.0097651 -0.24801 -0.34267 -0.20377 0.18033 -0.34568 -0.052569 0.24999 -0.00090594 -0.33307 0.32717 -0.41526 0.019962 -0.13801 0.17409 0.018455 0.16726 0.56735 -0.05578 0.1569 0.18626 0.188 0.25626 0.043547 0.43311 -0.19606 0.56187 -0.20773 0.67424 -0.080485 0.021793 0.5095 0.14788 -0.46371 -0.20287 0.27997 0.14714 0.01272 -0.27257 -0.17012 0.30231 0.18237 0.2295 0.068889 0.32879 -0.43153 0.01336 0.14423 -0.13159 -0.23299 -0.0085661 -0.014673 0.054571 -0.13845 0.045713 0.071355 0.35802 0.21384 0.4164 0.013408 -0.38442 0.12486 -0.79939 -0.11493 
事 0.62723 -0.24773 0.056012 0.22155 -0.48983 -0.20053 0.016869 -0.16644 0.30058 -0.03621 0.446 -0.42545 -0.14672 -0.34038 -0.62178 -0.26372 0.47722 -0.2666 0.12064 -0.10645 0.18081 0.16289 -0.44591 0.50119 0.065898 -0.059922 -0.20035 -0.30312 -0.085482 -0.63141 -0.013572 -0.30784 -0.46966 0.16148 -0.21331 -0.049616 0.44536 -0.080414 -0.32295 0.41304 -0.07571 -0.70897 0.37379 -0.5821 0.58078 0.0083811 0.15148 -0.0010547 0.68338 -0.18655 0.043544 0.029608 -0.15475 0.352 -0.15408 -0.37668 -0.22975 0.23413 -0.24005 0.18104 0.5345 -0.14376 0.19023 0.069453 0.17843 -0.030834 -0.1344 0.019315 0.35452 0.16439 0.080152 -0.085673 -0.059907 0.0099728 -0.12445 0.087822 0.16238 -0.50978 0.30805 0.35405 0.21036 -0.26755 0.36809 0.17377 0.13469 0.037718 0.00078963 -0.13162 -0.066493 0.26782 0.12058 -0.23193 0.48711 0.35308 -0.1888 -0.15168 -0.038127 0.05695 -0.078113 0.34026 
真 -0.05083 -0.044285 -0.11699 -0.092123 0.030598 -0.036316 -0.34191 0.50537 -0.10048 -0.066286 0.29438 0.21371 -0.18545 -0.025912 0.44599 -0.30117 -0.21717 -0.22507 -0.32975 0.073496 -0.17073 0.48705 -0.2883 0.26402 0.034357 0.21111 0.13884 -0.033007 -0.18562 -0.3833 0.10182 -0.55058 -0.049062 -0.39573 -0.10654 -0.02569 0.18845 -0.34545 -0.2389 0.054742 -0.20446 -0.085344 -0.12211 -0.69138 0.18973 -0.17295 -0.058468 0.033881 0.37677 -0.63477 0.21576 -0.73798 -0.29776 0.19947 0.51461 0.20253 0.43685 0.044325 0.088023 0.055085 0.23497 -0.30128 -0.20019 0.27379 0.44419 -0.3159 0.24459 0.073896 -0.087983 -0.20175 0.016477 -0.33876 -0.11992 -0.1282 -0.45474 0.27322 0.26563 0.099384 0.27367 0.35496 0.14227 -0.072302 0.26771 0.32999 0.17412 -0.027603 0.13422 0.62685 -0.058495 -0.022974 -0.32909 -0.29713 0.43886 -0.2575 0.10736 0.27119 -0.61188 -0.11961 -0.034614 0.0068311 
嘛 0.23123 0.31615 -0.44668 0.012589 -0.15678 0.022875 0.033489 0.24751 -0.037867 -0.0060746 -0.41345 0.41016 -0.092532 -0.18353 0.28328 0.14574 -0.3469 0.058368 -0.36714 -0.34059 0.19208 -0.03188 -0.16767 0.0989 -0.18751 0.01703 -0.0089911 0.25889 0.013341 -0.10468 0.22057 0.10108 -0.32398 -0.20905 0.0147 -0.12308 -0.032558 -0.31879 0.42664 -0.095279 0.098974 -0.097668 -0.063288 0.3569 0.61167 -0.39458 -0.012982 -0.015498 0.091075 -0.34762 -0.29037 -0.34936 -0.33743 0.42585 0.50381 -0.49841 -0.13579 0.15916 -0.016343 0.041066 1.0053 -0.26193 0.32583 0.11164 0.053008 -0.0090586 0.38662 -0.10149 0.17988 -0.31301 -0.51639 -0.072152 0.21702 0.21203 0.091268 -0.050203 0.39758 -0.017318 -0.089567 -0.066834 0.37005 -0.17374 0.24564 0.20176 0.058089 0.40968 0.27329 -0.37994 -0.25164 0.10015 -0.14829 0.21902 0.058953 0.21455 -0.10979 -0.42488 -0.4469 0.33269 -0.53055 -0.32329 
款 0.1212 0.080459 0.22591 0.074641 -0.22994 -0.21248 -0.040941 0.10116 0.1856 -0.24397 0.08644 -0.092598 -0.21629 -0.11175 -0.0059151 0.004974 -0.038544 0.031185 -0.15397 0.042625 0.032376 0.019651 0.14667 -0.19227 0.12999 0.029833 -0.067083 -0.052801 0.012831 -0.2415 0.27661 -0.0084485 -0.18913 -0.00030743 -0.19851 -0.22969 0.44612 -0.15978 -0.019899 0.25792 0.11529 -0.20426 0.12054 0.1917 -0.22694 0.19924 0.18882 0.010964 -0.14552 -0.026916 -0.41586 -0.19676 -0.48386 0.27573 0.32369 -0.19959 0.20227 0.29064 0.019747 -0.29341 0.36532 -0.454 0.36112 0.12656 -0.009657 -0.0075377 -0.0047241 0.094442 0.46369 -0.23444 -0.09254 -0.10988 -0.071444 0.32072 0.090505 0.07981 0.18712 0.046293 0.077497 0.076123 0.34089 -0.14443 0.22729 0.22595 -0.04721 -0.0045913 -0.12816 -0.18348 0.095936 0.0359 -0.076908 -0.0082059 0.22274 0.017352 -0.029433 0.24929 -0.10126 0.23888 -0.59727 -0.18096 
冻 -0.0093327 -0.66889 -0.15734 -0.27201 0.28646 0.15311 -0.15892 -0.25718 0.25277 0.31981 -0.020185 -0.3785 0.16288 0.085089 -0.59422 -0.26991 0.543 -0.11032 -0.67386 0.21148 -0.49184 0.69573 -0.37531 -0.0043478 -0.3771 0.31436 -0.0026299 -0.030728 0.58546 0.60099 0.60137 -0.26367 -0.13568 -0.22148 0.37232 -0.37111 0.56408 -0.099168 -0.22302 -0.044598 -0.08803 0.1336 -0.70515 -0.0061138 -0.15893 -0.39015 0.62766 0.0095036 0.044184 0.25992 0.65208 0.28879 -0.80554 0.3505 -0.1651 0.09088 -0.25189 0.18799 0.63121 -0.67327 0.10811 0.1614 0.40376 0.26052 0.59042 0.025006 -0.061952 0.40887 0.46111 -0.86443 -0.39788 -0.58177 0.39494 0.22371 -0.5202 -0.080219 0.72395 -0.19484 -0.10306 0.01621 0.29037 -0.49982 0.13219 0.054619 0.38685 0.58892 0.13378 0.4738 -0.97718 0.31561 -0.42163 -0.72355 1.284 -0.30672 -0.22679 0.26309 -0.095613 0.16387 -0.52453 0.29955 
结 -0.24987 -0.24107 0.12562 -0.14298 0.21172 0.14357 0.24945 -0.30777 0.25369 -0.099172 -0.031755 -0.17676 -0.064309 0.49741 -0.42638 0.23914 0.13078 -0.021751 -0.48621 0.42977 -0.43406 0.47708 -0.34262 0.030346 -0.00018248 0.31295 0.041025 -0.41897 0.22643 0.22758 0.49495 0.034498 -0.24333 -0.17462 0.12438 -0.41877 0.56223 0.10962 0.071523 -0.15744 -0.0053131 0.032712 -0.14219 0.33756 0.28589 -0.43439 0.28444 -0.43428 0.098442 -0.15791 0.10349 -0.074011 -0.47656 0.099852 0.23471 -0.35435 -0.065102 0.53596 0.59432 -0.3345 0.22402 -0.045517 0.20268 0.49608 0.40753 0.043894 -0.0094732 0.23821 0.34893 -0.32772 -0.047411 -0.5996 0.10704 0.30886 0.17644 0.19898 0.5348 -0.13426 0.019981 -0.31484 0.53269 -0.29922 0.3217 0.07946 0.12748 0.32481 0.26368 0.43919 -0.20716 -0.19584 -0.47865 -0.67634 0.66557 0.0067743 -0.12613 0.38887 -0.42711 0.31455 -0.60417 0.34643 
后 -0.096414 0.16285 0.30418 -0.37627 -0.052553 0.11815 -0.36163 -0.061741 0.27488 0.048839 0.020948 -0.060389 -0.20416 -0.11117 0.090573 0.16533 -0.0042984 -0.2291 -0.045326 0.1634 -0.20184 0.044425 0.24169 0.03317 -0.41225 -0.19739 0.058991 0.038524 -0.056874 -0.13789 0.2096 0.0017527 -0.026628 0.20889 -0.37145 0.080317 -0.04526 -0.32447 -0.16356 -0.058775 0.10779 -0.078734 -0.19723 0.13717 0.19838 -0.19709 0.030352 0.16502 0.51411 -0.038961 -0.27242 0.052205 -0.29614 0.11487 0.043135 -0.12399 0.062312 0.43293 0.26211 0.035272 0.57496 -0.35079 0.42336 0.32407 0.30682 0.008818 0.31835 -0.066836 0.27702 -0.6843 -0.37119 -0.058629 0.048008 0.69167 0.00084735 0.089034 0.57654 -0.123 0.42872 0.19177 0.45282 0.19839 0.47851 0.025767 -0.10349 -0.31988 -0.20514 0.031063 0.20426 -0.047287 0.064574 -0.20513 0.34626 -0.21645 0.21721 0.18002 -0.39197 0.53908 -0.40344 0.20265 
还 0.087978 0.034035 0.030058 -0.12016 -0.088936 0.020912 -0.032611 0.066417 0.17486 -0.12906 0.090585 0.021801 -0.094527 -0.085363 -0.1318 0.22524 -0.096159 -0.0049732 -0.38941 0.017247 -0.15021 0.1849 -0.067421 -0.077865 -0.16278 0.1772 0.055673 -0.057967 0.0484 0.06293 0.097787 0.046267 -0.045154 -0.11654 -0.1146 -0.15273 0.40119 -0.35726 -0.0061749 0.23281 0.074325 -0.21065 -0.044903 0.10064 0.062294 0.24314 -0.0034521 -0.086117 -0.043118 -0.039677 -0.29946 -0.10019 -0.37215 0.10033 0.31875 -0.21704 0.067643 0.29108 0.096627 -0.14015 0.66611 -0.39878 0.30788 0.27683 -0.014129 -0.14276 0.032155 0.35035 0.37782 -0.1977 -0.063706 0.018876 0.10508 0.2292 0.17307 -0.079231 0.20541 -0.10828 -0.0075442 0.051934 0.40934 -0.22967 0.016929 0.30189 -0.2814 -0.31175 -0.058353 0.069552 -0.062271 -0.16883 0.0097346 -0.18727 0.25657 0.19783 0.028274 -0.057691 -0.47868 0.61062 -0.49739 0.020393 
能 0.23753 -0.14712 -0.083828 -0.15559 -0.17568 -0.34883 -0.22771 -0.11113 0.063401 -0.18938 0.21573 0.43739 0.10845 -0.13786 -0.21404 -0.17579 0.0078625 -0.16496 -0.16862 -0.14736 0.12085 -0.10575 -0.11769 -0.091953 -0.27021 0.08117 0.12172 0.005314 -0.19378 -0.10354 0.15517 0.15932 -0.2667 0.17899 -0.033476 -0.38828 -0.33195 -0.072807 -0.1313 -0.23324 -0.14471 -0.42175 0.23287 0.3067 0.28128 -0.042989 0.051788 -0.26065 0.080151 0.078572 -0.050793 -0.53835 -0.034479 0.36084 0.096656 -0.44639 -0.12093 0.17557 -0.20627 -0.44401 0.33153 -0.013019 0.21634 0.02492 0.26076 -0.058005 -0.10439 -0.086198 0.37651 -0.083281 -0.20948 -0.27741 -0.063972 0.25602 -0.094684 -0.048888 0.54817 0.1367 0.27885 0.072757 0.18153 0.0054266 -0.019987 -0.035297 0.35272 -0.0028644 0.16816 0.21226 -0.28483 -0.14844 0.18573 -0.53261 0.32597 -2.5805e-06 -0.15523 -0.2311 -0.19185 0.33394 -0.32188 -0.046176 
通 0.27145 -0.087601 -0.12402 0.22912 -0.35751 -0.31887 -0.35426 0.39034 0.72432 0.1167 0.26138 0.1639 -0.043083 0.12402 -0.65353 -0.29566 0.0055198 0.24969 -0.098608 0.095413 0.079302 -0.099009 -0.075013 0.10119 -0.1407 0.24731 -0.070855 -0.0030341 0.22858 -0.14893 -0.25129 0.29513 -0.339 0.34989 -0.043598 -0.21602 -0.22644 -0.049689 -0.2009 -0.17501 0.014081 0.01015 0.069639 -0.34987 0.18167 0.063615 -0.0059919 -0.37812 -0.21185 -0.3427 0.31697 -0.21289 0.058751 0.40305 0.45625 0.067324 0.35521 -0.37924 -0.2062 -0.32296 0.21601 -0.31459 0.57172 0.21556 0.38198 0.045457 -0.28658 0.11624 0.35547 -0.41571 -0.10516 -0.45685 -0.26172 0.38558 -0.053005 0.45476 0.50819 -0.33613 0.069939 0.041216 -0.12051 -0.5923 0.09808 0.072686 0.017497 -0.074236 0.10557 0.29621 -0.3418 -0.2806 0.31791 -0.49343 0.36646 -0.47085 -0.22537 -0.15605 -0.24962 -0.036669 0.037898 0.094966 
吗 0.51571 -0.0066985 -0.18754 0.29077 -0.086959 -0.032976 0.12421 0.38088 -0.13344 -0.23551 -0.35533 0.34292 0.044658 -0.084409 0.40146 0.15982 -0.41861 0.21483 -0.20572 -0.20001 0.26001 0.094622 -0.10619 -0.057487 -0.46723 -0.02743 -0.15055 0.12518 -0.16932 -0.11697 0.3594 -0.036159 -0.18788 -0.065389 -0.20932 0.057549 0.073351 -0.17015 0.48506 -0.013519 -0.0094531 -0.35059 0.10727 0.24502 0.32576 -0.37412 -0.19253 -0.091796 0.056733 -0.35795 -0.4418 -0.34528 -0.22565 0.21221 0.42194 -0.41435 -0.037577 0.23983 0.01246 0.1117 0.76248 -0.23933 0.35146 0.27855 -0.03222 -0.071631 0.1498 -0.030751 0.21899 -0.40345 -0.36647 -0.015017 0.032513 0.43639 0.087174 0.16817 0.33699 0.15148 -0.01999 -0.06814 0.30885 -0.17296 0.056238 0.22588 0.2379 0.057727 0.18051 -0.19498 -0.22503 0.1266 -0.12341 0.13881 -0.056148 0.01429 -0.059578 -0.41999 -0.33849 0.21184 -0.49501 -0.30837 
条 0.39888 0.17184 -0.37515 -0.53715 -0.60401 0.16037 -0.12883 0.18753 0.027873 -0.16786 0.32241 -0.055916 -0.29547 0.055521 -0.2824 -0.26758 0.028224 0.54167 -0.94727 0.0066683 -0.15472 0.50781 0.21119 0.20595 0.39285 -0.24198 0.42727 0.046191 -0.061626 0.16602 -0.05844 0.38119 -0.35904 0.0053516 0.15437 -0.60266 -0.48093 -0.11383 -0.3011 -0.037327 -0.13636 -0.0030623 -1.2486 0.025945 -0.15496 -0.25918 -0.29062 -0.53358 -0.46755 -1.0429 -0.66548 -0.32304 -0.66485 0.086351 -0.24336 -1.0193 0.16926 -0.075777 0.25186 -0.53837 -0.025984 -0.24682 0.47892 0.6012 -0.26962 0.0045098 -0.78754 -0.21417 0.49871 -0.49488 -0.15873 -0.69851 0.10551 0.17008 -0.68471 0.41905 0.21125 -0.29652 0.23931 0.70589 -0.078188 -0.2822 0.41896 0.62276 -0.17613 0.32364 0.36747 -0.033331 -1.0298 0.023572 0.18163 -0.49666 0.69698 -0.47637 -0.038402 -0.23279 -0.37414 -0.38326 -0.2753 -0.23876 
件 0.61343 -0.17964 0.19474 -0.21721 -0.78847 0.57153 0.029864 -0.011911 0.014657 -0.19598 0.98366 -0.14459 -0.29431 0.29056 0.34534 -0.51779 0.24382 0.10761 -0.74193 0.16816 0.19177 0.135 0.43931 -0.015983 0.089578 -0.55724 -0.0099072 -0.17696 -0.14526 0.010913 0.65811 0.39843 -0.42225 0.057408 0.13376 -0.46871 -0.19903 -0.41683 -0.2117 0.059635 0.227 0.13645 -0.50842 -0.072968 0.27747 -0.12012 -0.22589 -0.66555 -0.22376 -0.92052 -0.54885 -0.30635 -0.53447 0.13803 0.23988 -0.73718 0.23246 0.38707 0.34244 -0.3872 -0.048218 -0.036044 0.29772 0.60971 0.3727 0.19607 -0.91237 0.031336 0.29903 -0.42224 -0.05282 -0.5424 0.17842 -0.2288 -0.35702 -0.27169 0.3189 -0.54409 0.50073 0.83339 -0.023143 -0.37607 0.26053 0.72178 -0.25534 0.0928 -0.21928 -0.073381 -0.72298 -0.25801 -0.068772 -0.45207 0.59643 -0.65284 -0.17035 -0.44019 -0.3206 0.042293 -0.27426 -0.33339 
可 0.15603 0.18804 -0.34162 -0.17456 -0.2464 -0.20419 -0.28143 0.020532 0.10124 -0.17258 -0.12766 0.4167 -0.048991 0.35677 -0.01723 0.15605 0.10901 0.05361 -0.31088 -0.44519 0.15217 -0.16276 0.14988 0.14411 -0.26946 0.12269 0.25962 -0.079422 -0.24211 0.069277 0.37513 -0.17899 -0.42962 0.23209 0.072389 0.091396 -0.1326 -0.23392 0.10013 -0.13425 0.31978 -0.5447 0.26404 -0.011616 0.31887 -0.36506 -0.059474 -0.044972 0.17379 -0.06634 -0.55517 -0.28406 -0.11072 0.282 0.4114 -0.27823 -0.3583 0.22837 -0.10064 -0.24976 0.49287 0.16125 -0.074975 0.119 0.019514 -0.039207 -0.055753 -0.35911 0.38849 0.15019 -0.3627 -0.4041 0.035842 0.24669 -6.4484e-05 0.24407 0.62659 0.16613 0.3969 0.061112 0.32187 0.11564 -0.23223 -0.015383 0.16957 -0.30932 0.10427 0.23718 -0.19352 0.20904 -0.033445 -0.41897 0.25509 0.1533 -0.30718 -0.37437 -0.54505 0.29455 -0.32015 -0.028368 
借 0.30219 -0.31494 -0.096149 -0.092205 -0.16006 -0.047348 -0.37293 0.33719 0.14084 0.073872 -0.095024 0.10054 0.16615 -0.025544 0.02573 -0.2763 -0.014334 -0.032823 -0.22255 -0.062707 -0.064038 0.074891 -0.087538 0.038777 0.031054 -0.152 -0.13848 -0.40465 -0.14054 0.11568 0.019931 0.072091 -0.2352 0.01482 0.020339 -0.22363 0.044348 -0.27512 0.0051065 -0.064628 -0.1153 -0.15607 0.16358 -0.23143 0.0046386 0.30353 -0.24989 0.33203 0.0030696 -0.074901 -0.11817 -0.37156 -0.010322 0.47871 0.28631 -0.19634 -0.27704 0.33665 -0.10467 0.010628 0.37183 0.26785 0.30152 0.21463 -0.20206 -0.30184 0.044567 0.52934 0.50612 -0.15141 -0.14014 -0.099414 0.23577 0.31808 0.076234 0.29619 0.14336 -0.046624 0.10594 -0.19666 0.26092 -0.061994 -0.052433 0.71279 -0.30381 -0.40117 0.16685 0.21072 -0.17038 -0.093134 0.030816 -0.2128 0.12129 0.028158 0.035967 0.26529 -0.36837 0.3763 -0.42605 0.19988 
如 0.32184 -0.17741 0.21841 0.17914 -0.059202 0.081732 0.21313 0.52484 -0.017673 -0.039845 0.51776 0.26594 -0.30087 0.17174 -0.19705 0.48277 -0.15597 -0.25311 0.12789 0.14984 -0.25228 -0.036584 -0.5038 -0.039059 -0.4323 -0.15406 0.03352 -0.15438 -0.23123 0.34426 0.25793 -0.13057 -0.19157 -0.2445 -0.19081 -0.22001 0.054363 -0.66088 -0.081426 -0.2072 -0.20353 -0.12557 -0.25731 0.543 0.45282 0.15054 0.064759 -0.38207 -0.067699 -0.32675 -0.52559 -0.43749 -0.22532 0.087199 -0.0011078 -0.028892 -0.17514 0.062499 -0.1254 -0.44156 0.88533 -0.11217 0.2988 0.4626 0.28238 0.084347 -0.3434 -0.1526 0.10375 -0.23403 -0.62584 -0.1079 0.28504 0.15629 0.13771 -0.27743 0.72013 0.23328 -0.24184 0.26142 0.65785 -0.035811 -0.0036502 0.28041 0.40349 -0.22569 0.017988 0.20132 0.18442 0.023318 0.15721 -0.20674 -0.3482 0.10236 -0.39419 0.45087 -0.76327 -0.067985 -0.19873 0.34581 
何 0.23591 0.026776 -0.020121 0.38076 0.08231 -0.21166 -0.074991 0.6021 -0.058365 -0.34979 0.31833 0.80192 -0.23587 0.030959 -0.15167 0.16465 -0.42034 -0.25766 -0.0033807 0.069064 0.040818 -0.15717 -0.56718 -0.10134 -0.35076 0.21911 0.34294 0.25218 -0.37673 -0.0011896 0.34901 -0.24592 -0.58949 -0.18634 -0.60154 0.22816 -0.059245 -0.30846 0.3405 -0.19766 0.07321 -0.028807 0.080998 0.22298 0.23826 -0.045251 0.14211 -0.15729 0.10652 -0.38178 -0.27796 -0.133 -0.32834 0.2652 0.18343 -0.29763 -0.20409 0.23228 0.098853 -0.14149 0.58689 -0.018019 0.275 0.17642 -0.071849 0.086416 -0.31883 -0.13043 0.36988 -0.2492 -0.54111 -0.19407 -0.065282 0.47609 0.30403 -0.0090004 0.54466 0.65474 -0.040686 0.0062078 0.2737 -0.060287 -0.30234 -0.14729 0.17845 -0.35164 0.23955 0.16477 -0.45865 -0.00084792 0.27417 -0.53574 -0.044967 -0.08873 -0.058424 -0.2414 -0.45131 -0.3856 -0.30833 0.010206 
得 0.21716 -0.044131 -0.048853 0.14341 -0.24253 -0.47403 -0.3662 0.39392 0.0041584 -0.25396 0.43754 0.18445 -0.074202 -0.18863 -0.29453 0.1557 -0.13073 -0.12291 -0.49716 0.38901 -0.15632 -0.0024353 -0.13991 -0.16248 -0.066886 -0.30966 0.26522 0.14089 -0.36311 -0.072812 0.097792 -0.007009 -0.63383 0.03476 -0.17684 -0.21761 -0.2026 -0.51087 -0.52574 0.072494 -0.14683 0.10818 -0.022498 -0.083302 0.28288 -0.30403 0.34201 -0.094037 0.20217 -0.042859 0.02725 0.08192 0.071081 0.3868 0.20198 -0.091062 0.21181 0.092055 0.073191 -0.038395 0.1071 -0.049331 0.11565 -0.051126 0.13634 -0.18673 0.16139 0.15932 -0.18737 -0.43988 -0.0019335 -0.25593 -0.27268 0.27136 -0.12945 0.33663 0.083522 -0.10591 0.23252 -0.2151 0.21374 -0.11477 0.13112 0.20332 -0.064487 -0.0032804 0.12352 0.44387 -0.0032252 -0.050525 -0.053792 -0.3934 -0.02031 -0.23155 0.32663 0.16581 -0.66073 0.31111 -0.30009 -0.015698 
知 0.46469 -0.24838 -0.28592 0.06721 -0.27161 -0.0069853 -0.62752 0.47089 0.20084 -0.25209 0.52612 0.25534 0.03268 -0.040363 -0.50495 0.053321 0.26058 -0.39197 -0.11124 -0.18945 -0.058498 -0.036392 -0.33804 0.18337 0.025834 -0.63534 -0.31732 0.14116 -0.24817 -0.092386 0.20447 0.11094 0.38206 -0.23676 -0.37519 -0.53686 0.0070234 -0.25786 0.12101 0.30264 0.39788 -0.23619 -0.017945 0.016423 -0.35835 0.086815 0.61328 -0.18553 -0.028202 -0.31935 0.42053 -0.17595 -0.059114 0.12987 -0.24729 -0.20835 0.27446 0.070816 0.51735 -0.24229 0.086041 0.041741 0.55556 0.15791 -0.1066 -0.10983 0.20508 -0.11751 0.074003 -0.27255 -0.17367 -0.27296 -0.21148 0.64815 -0.13347 -0.36186 0.13749 -0.24406 0.35229 -0.28551 0.39951 0.084129 0.34209 0.60186 0.42607 0.062271 0.40798 -0.10695 -0.17295 -0.28427 0.69736 -0.23686 0.49502 0.10494 0.17505 0.07963 -0.34226 -0.058019 -0.36242 -0.033994 
关 0.52023 0.39466 -0.45096 0.12327 -0.40199 0.021926 -0.33926 0.37659 0.26493 -0.23584 0.014195 0.008166 -0.53271 0.1347 -0.55379 -0.43776 -0.19784 0.032096 -0.40316 0.016364 -0.025457 0.0024486 -0.51521 0.03257 -0.42522 0.18446 0.21312 -0.22576 0.76653 -0.32571 0.23439 0.27412 0.27225 0.18741 -0.32957 0.09808 0.048945 0.0566 -0.030968 -0.00015607 0.18636 0.082518 -0.051737 -0.18669 0.20707 -0.027646 0.25453 -0.050013 0.17496 -0.20318 0.0012325 -0.54807 -0.33275 0.029121 0.34861 0.058634 -0.21257 -0.27064 0.44882 -0.42139 0.37744 0.12975 0.58377 -0.10549 0.3474 -0.040555 -0.013851 0.15558 0.19003 -0.085036 -0.73818 -0.11676 -0.027657 0.13116 -0.17729 0.67569 0.61907 -0.20767 0.40394 -0.37385 0.54458 -0.099358 0.39194 0.63186 -0.050878 0.10683 0.22677 0.18139 -0.21788 0.10466 0.18742 -0.37858 0.20823 -0.1382 -0.26252 0.14554 0.042448 0.19572 0.0080543 0.17712 
闭 0.26979 0.26402 -0.69921 -0.14957 -0.39155 0.078239 -0.93246 0.19032 0.53972 -0.08988 0.30086 0.026919 -0.28283 -0.13773 -0.3264 -0.27272 0.13889 -0.17069 -0.55249 0.23033 -0.3954 -0.034625 -0.27934 -0.087994 -0.5531 0.16943 0.30607 -0.069971 0.65262 -0.39169 0.33788 0.18035 -0.12272 0.21474 -0.23828 0.08233 -0.033996 -0.25908 0.56554 -0.019547 -0.10737 0.27212 -0.12117 -0.13467 0.29395 -0.1722 0.45704 -0.06764 -0.32316 -0.36123 -0.01223 -0.45282 -0.21792 0.16574 0.032993 0.19488 -0.30398 -0.11708 -0.34338 -0.27648 0.21384 0.20491 0.82337 0.082298 0.55018 -0.18212 0.0049478 0.3902 0.29299 -0.20069 -0.82038 0.16439 -0.5689 0.56363 -0.12121 0.13524 0.15729 -0.36573 -7.3071e-05 -0.35762 0.35222 -0.35811 0.50946 0.16127 -0.21167 0.24113 -0.20922 0.59431 -0.16545 0.24844 0.23147 -0.7156 -0.020436 -0.24645 -0.40162 0.073006 -0.045845 0.04442 -0.12993 -0.10429 
想 0.41397 -0.26971 -0.20959 0.06159 -0.085325 0.00035476 -0.31977 0.37305 0.089881 0.063635 0.4562 0.3343 -0.26971 0.24413 -0.38205 -0.11396 -0.0045612 -0.00227 -0.15466 -0.12862 -0.096641 0.18031 -0.19221 0.1804 -0.25321 -0.14389 -0.085603 0.24848 -0.16854 0.045721 0.087601 -0.24656 -0.11777 0.17335 -0.088847 -0.17653 -0.053272 -0.52972 -0.25402 -0.25477 0.15447 -0.23868 0.091902 0.0021263 0.31717 0.15526 0.16903 -0.051416 -0.06643 -0.28439 -0.17663 -0.37379 0.093787 0.32298 0.070361 -0.14638 0.032865 0.34444 0.19055 -0.17757 0.28968 0.020092 0.18142 0.30319 0.041455 -0.20562 -0.16011 -0.12484 0.26715 -0.15398 -0.45414 0.17089 -0.34386 0.21761 0.040988 -0.21913 0.20531 -0.27461 0.013994 0.039723 0.26456 -0.040456 0.037679 0.38604 0.26157 0.13964 -0.17326 0.094995 0.0067938 -0.24662 0.28288 -0.39105 0.33516 0.28895 0.12304 -0.14579 -0.46002 -0.078234 -0.31833 -0.10523 
永 0.70303 -0.19967 -0.53853 -0.9143 0.030911 0.29395 -0.78704 0.36209 0.21553 -0.33324 0.19988 0.69321 -0.56451 -0.31152 0.067198 -0.15496 -0.33078 -0.18895 -0.70635 -0.0081221 -0.17896 -0.59189 -0.25157 0.48644 0.099794 -0.0025319 -0.015808 0.50777 0.4088 0.18179 0.014781 0.39352 0.27781 0.45419 -0.21175 -0.085124 -0.23145 -0.64119 -0.44792 -0.27152 -0.23495 -0.19902 -0.8772 -0.11638 0.96054 -0.0088261 0.42854 -0.10687 -0.26602 0.56175 0.24996 -0.34988 -0.4513 -0.21589 -0.29072 0.36343 -0.56273 -0.31357 0.033075 0.2444 0.82598 -0.066776 0.46754 -0.38481 -0.3561 -0.25103 0.015038 0.20794 0.30697 -0.38774 -0.20664 0.42664 -0.52338 0.3438 -0.016098 -0.12172 0.056325 -0.3584 -0.28453 -0.39592 0.17338 0.19742 -0.17061 -0.020624 0.63118 -0.19067 0.039546 0.62324 -0.49221 0.38143 -0.012586 -0.31264 0.43102 -0.36194 -0.096059 0.39275 -0.15242 0.23367 -0.22658 0.24363 
久 0.73821 -0.29231 -0.042966 -0.048156 -0.03368 0.032311 -0.052675 0.61916 0.038302 -0.042763 -0.19328 0.18176 -0.033373 -0.24853 -0.54758 0.061733 0.23698 0.014261 0.0054959 0.088724 0.10641 0.2897 -0.02064 0.20654 -0.029564 -0.36941 0.23939 0.40697 0.22392 0.21577 0.36865 0.29926 -0.24158 0.25371 -0.2154 -0.096805 -0.15667 -0.33355 0.30424 -0.028427 -0.0584 -0.18527 -0.11066 -0.063161 0.36047 -0.27009 0.082627 -0.10905 -0.069132 -0.10916 0.05116 0.025069 -0.59282 0.49454 0.056108 -0.53998 -0.004588 0.45336 -0.09522 0.1583 0.041221 0.057585 -0.057667 0.009017 -0.10591 0.1146 0.35461 0.49091 0.24965 -0.7323 -0.16357 -0.04071 0.08106 0.39058 0.0087405 0.038175 0.1497 -0.020732 0.26895 0.3385 0.56491 -0.14916 -0.15547 0.11496 -0.090335 0.23382 0.16871 0.15815 -0.23824 0.19654 0.10634 -0.2138 0.31396 -0.055788 0.15892 -0.20523 -0.54581 -0.14031 -0.68691 -0.0033511 
扫 -0.01826 -0.13199 0.052787 0.3963 -0.37346 0.22545 -0.036371 0.40184 -0.32322 -0.1164 0.055912 -0.11134 -0.070665 -0.26899 0.26901 0.35873 0.078958 0.30525 0.54018 0.41569 -0.079484 -0.23057 0.14974 0.41737 0.20038 0.083727 -0.053746 -0.38602 -0.15761 -0.44421 0.30222 -0.26286 0.037009 0.53771 0.14312 -0.51511 -0.19976 0.55195 0.084861 0.18521 0.51946 -0.68758 -0.51534 -0.31797 0.71599 -0.22353 0.094551 0.12116 0.056757 -0.20729 -0.029699 -0.18791 -0.028941 0.25662 0.17627 -0.83229 0.42647 0.14579 -0.18799 -0.41049 0.36734 -0.0056898 1.0309 -0.056646 0.098946 0.12795 -0.64434 -0.51533 0.039918 -0.16035 -0.18428 -0.37413 -0.16998 0.52895 -0.33953 0.2002 0.28124 -0.049436 -0.30267 -0.23013 0.081011 -0.43882 0.26738 -0.20572 0.11528 -0.10014 0.97944 0.57493 -0.04214 0.036336 0.41268 -0.18556 0.38475 0.24683 0.30326 0.095868 -0.26604 0.7884 -0.67907 -0.25681 
钱 -0.0038696 -0.055279 0.056883 0.1883 -0.35045 0.099964 0.073236 0.18638 -0.10707 -0.37933 0.19198 0.17756 -0.10255 0.025536 -0.13756 -0.17515 0.17252 0.031869 -0.13995 -0.0104 -0.12308 -0.087278 0.15376 -0.18951 0.16146 -0.19344 0.098323 0.21262 -0.074773 -0.084547 0.050202 0.076759 -0.25107 0.1368 0.02599 -0.20153 0.11567 0.067253 -0.22455 0.39569 0.45854 -0.56649 -0.091538 -0.043922 -0.050737 0.090769 0.47293 -0.14821 -0.088581 -0.10529 -0.37764 -0.19567 -0.29116 0.12499 0.34226 -0.33066 0.10391 0.28533 -0.057094 0.030521 0.24726 -0.065851 0.28417 0.095145 0.058204 -0.21868 0.18211 -0.042523 0.35658 -0.39457 -0.20251 -0.06701 -0.24063 0.12151 -0.16519 -0.19409 0.10337 -0.20248 0.040481 0.20888 0.15916 -0.22301 0.14728 0.33138 0.0081391 0.20598 0.11513 -0.17889 -0.063076 0.30043 -0.064972 -0.14492 0.30533 -0.11201 -0.099363 0.16546 -0.14594 0.41805 -0.57325 -0.1105 
二 0.13671 -0.17851 0.027844 0.69041 -0.00064508 0.12776 0.35379 0.59651 0.10206 0.20929 0.21299 0.42562 0.06256 -0.37726 -0.28942 0.71146 -0.16576 0.30929 0.051235 0.57955 0.13363 -1.2839 -0.51052 0.66315 0.84505 -0.58235 0.037908 0.35809 -0.29156 -0.17071 -0.1829 0.1929 0.20075 1.2275 -0.29927 -0.50257 -0.24112 0.0079161 -0.24818 0.52136 0.21439 -0.48316 -1.078 -0.35813 -0.12904 -0.32469 0.0068126 -0.48659 -0.13922 -0.075008 -0.5594 -0.68034 -0.99228 -0.0052391 0.3508 -1.2845 -0.065346 0.27027 -0.33066 -0.73119 0.45895 0.14459 1.3815 -0.26844 -0.092052 0.23252 -0.7005 -0.60601 0.58678 0.13113 -0.40672 -0.014381 0.22098 1.0082 -0.25765 0.47774 -0.63988 0.076315 0.83009 -0.60811 0.27114 -0.74156 0.38068 -0.25752 -0.22021 -0.37609 0.12903 0.05506 -0.58061 -0.20689 0.085514 -0.58841 -0.14771 0.49548 0.77677 0.82893 -0.74046 0.67893 -1.0024 -0.67813 
维 0.37291 -0.2533 -0.58108 0.33903 0.10602 -0.12883 0.2031 0.52561 -0.82336 -0.28216 -0.14451 0.014818 -0.070196 -0.34761 0.18216 0.45201 0.31991 0.56221 0.64487 0.33408 -0.00087318 -0.43417 -0.22202 0.17436 0.15506 -0.34616 -0.25398 0.19463 -0.077778 -0.61187 0.23173 0.10662 -0.13978 0.43822 -0.12808 -0.19581 -0.35352 0.22837 -0.047074 0.27244 0.37709 -0.6227 -0.71584 -0.63387 0.089848 -0.12317 0.34832 -0.23172 -0.09409 -0.5837 -0.22041 -0.028175 -0.49513 0.46048 0.3383 -0.40163 0.44594 0.15748 -0.049664 -0.65899 0.26959 0.28446 1.2692 0.36922 0.3996 0.33959 -0.95779 -0.11212 0.23135 -0.32761 -0.25656 -0.57983 -0.27234 0.31586 -0.15109 0.33742 0.18206 -0.3761 0.24802 -0.52715 -0.16619 -0.5792 -0.039855 -0.015832 0.1577 -0.23668 0.45084 0.33235 -0.13579 -0.069092 0.52795 0.024852 0.29958 -0.018588 0.12564 0.47845 0.13594 0.24827 -0.54712 -0.32825 
描 0.14233 0.14288 0.028655 0.035209 -0.46196 -0.27053 0.28436 0.52385 -0.63118 -0.26965 -0.13446 0.10338 0.14418 -0.081379 0.22436 -0.031814 0.38429 0.27826 0.18753 0.16038 -0.14715 -0.316 -0.036485 0.28875 0.4161 0.071111 0.16825 -0.44544 -0.16875 -0.80035 0.083349 -0.60898 -0.0058938 0.43838 0.2601 -0.18206 -0.10545 0.069119 -0.43292 0.1627 0.14621 -0.14474 -0.40284 -0.17328 0.060782 -0.32409 0.2935 0.29934 0.020284 -0.40602 -0.29713 -0.22419 0.16893 0.56789 0.37241 -0.56862 0.39326 -0.29331 -0.30733 -0.17843 0.40614 -0.14189 0.38816 0.16838 0.4049 0.34865 -0.8699 0.075914 0.41329 -0.31353 0.079639 -0.49733 -0.042624 0.049936 -0.35696 0.57455 0.23901 0.11798 0.076213 -0.20453 0.2783 -0.7272 0.32858 -0.26743 0.32795 -0.13764 0.37391 0.59988 -0.13074 0.10246 0.12715 -0.022408 0.30287 -0.38406 -0.14446 -0.026207 -0.097433 0.29898 -0.47659 -0.48369 
用 0.044038 -0.07346 -0.16091 0.10932 -0.16335 -0.20707 0.12593 0.062229 0.10681 0.0060398 0.092203 -0.018881 -0.2006 -0.13044 -0.14553 -0.015691 0.089331 -0.092136 0.0090214 0.09098 0.046984 -0.008769 0.078725 0.025483 -0.21911 0.11343 0.15259 -0.13884 0.29909 0.12412 0.22611 -0.043316 -0.2464 0.20573 -0.24167 -0.43793 -0.25355 -0.3907 -0.21844 -0.0039189 0.062496 -0.33214 0.085278 0.21279 0.20722 -0.16002 0.3604 -0.19396 0.52356 -0.34348 -0.069314 -0.12748 -0.18517 0.16643 0.233 -0.45519 0.047906 0.054871 -0.13212 -0.29189 0.33624 -0.41081 0.34304 -0.032839 0.13781 0.063547 -0.030913 -0.16366 0.095723 -0.20614 0.0028067 -0.40163 -0.19039 0.36869 -0.20785 -0.14416 0.18802 -0.3324 -0.10704 -0.10562 0.068644 -0.016249 0.01549 0.064709 0.14666 -0.028716 0.094478 -0.0072612 -0.2539 -0.041468 0.006175 -0.035886 0.23901 -0.049438 0.012118 -0.051095 -0.34198 0.31912 0.029651 -0.38367 
逾 -0.0057142 -0.43628 -0.14443 -0.085804 0.16084 -0.26259 0.094964 0.24227 0.27497 0.11929 -0.13914 -0.040687 0.2842 -0.27743 -0.30514 -0.16622 0.21537 0.041574 -0.67417 -0.016145 -0.076093 -0.14254 -0.10514 -0.10799 -0.36609 0.69086 -0.17774 -0.12567 0.25466 0.13682 0.46937 -0.045479 0.10209 0.63083 -0.063589 -0.56424 0.37338 -0.71941 -0.11934 -0.47313 -0.21575 -0.18904 -0.28486 0.041197 0.14621 0.34451 0.3741 -0.16841 0.14636 0.0032716 -0.19949 0.046951 0.065007 0.018795 0.031519 -0.65941 0.17033 -0.020388 0.34036 0.11016 0.25584 -0.43915 0.46744 0.30704 0.28174 0.036357 0.45475 0.56005 0.2062 -0.55191 -0.29649 0.31268 0.4084 0.087553 -0.52356 -0.024446 0.14629 -0.37171 0.0046617 -0.012963 0.11557 -0.18952 0.5172 0.42824 -0.3763 -0.22952 0.076042 0.63295 -0.28914 -0.0030603 -0.23049 -0.20377 0.46637 0.3762 0.035382 0.36875 -0.40116 0.48594 -0.54907 0.14992 
期 0.37651 -0.21874 -0.013313 -0.41587 0.050621 -0.18537 0.065221 -0.069542 0.068499 0.36312 -0.028912 0.10078 -0.23443 0.24019 0.057849 -0.30867 -0.11471 -0.10783 -0.32346 -0.10897 -0.19071 0.10617 0.15793 0.16419 -0.31878 0.15196 -0.087897 -0.28845 0.28784 0.20821 0.28733 -0.099942 -0.25305 -0.17755 -0.04432 -0.29529 0.60049 -0.42966 -0.083517 -0.22445 -0.16065 -0.082236 -0.18635 0.074235 0.36428 0.046388 0.057001 0.10876 -0.076215 -0.095931 -0.24605 -0.29803 -0.1696 0.51487 -0.0199 -0.19906 0.25409 0.47413 -0.087116 -0.29409 0.36648 0.018733 0.49227 0.18853 0.46724 0.041228 0.12571 0.10433 0.43234 -0.22366 0.23579 0.088814 0.097635 0.63598 -0.01702 0.027653 -0.12877 -0.069949 -0.10983 0.22339 0.42664 0.2161 0.35104 0.51173 -0.033263 0.046219 -0.18273 0.076148 -0.062292 -0.50104 0.046872 -0.18058 0.33326 0.0081947 0.50605 0.19665 -0.18003 0.49445 -0.58138 -0.40582 
分 0.020953 0.24862 0.22977 -0.1822 0.37596 -0.018074 0.18809 -0.031764 0.39379 0.069472 0.1657 0.22501 0.12306 0.15484 -0.039766 -0.40494 -0.013896 -0.19018 -0.187 0.059373 0.37383 0.01954 0.21079 -0.08488 -0.31633 0.16201 0.032744 -0.50209 -0.017516 0.44923 0.59695 -0.27758 -0.042996 -0.18981 -0.096613 0.02323 0.25959 -0.4107 -0.096458 -0.55141 -0.056692 -0.40612 -0.15636 0.14746 0.26328 -0.018772 0.089658 0.11361 0.21972 -0.23141 -0.089672 -0.29492 -0.25582 0.29767 -0.017181 -0.11352 -0.15397 0.48827 -0.25997 -0.25283 0.023252 -0.01738 0.27898 0.32265 0.014266 0.046403 0.16469 -0.12498 0.13577 -0.27946 -0.30055 -0.12368 -0.095917 -0.083957 -0.2392 0.33583 -0.092501 -0.19398 0.10147 0.14528 0.081155 0.45426 0.117 0.71999 -0.16592 0.30278 -0.21589 -0.11009 0.054156 -0.067734 0.20921 -0.12407 0.14111 0.064441 0.53249 0.29626 -0.48781 0.38371 -0.50659 -0.61684 
个 0.55244 -0.18389 0.097742 -0.3947 -0.26309 -0.083025 0.074448 0.27318 0.063554 -0.067957 0.38056 0.0087558 0.29697 0.066236 -0.19638 -0.10686 -0.10892 -0.074162 -0.57924 0.26511 -0.053565 0.22388 0.14506 -0.031963 -0.065569 -0.018015 0.25715 -0.025006 0.12336 0.37644 0.33678 -0.215 -0.038022 0.35911 -0.037137 -0.12228 0.014114 -0.55542 0.082233 -0.16254 0.57345 -0.13229 0.12713 -0.29245 -0.029137 -0.35898 -0.014273 -0.27936 0.18679 -0.62713 -0.13806 -0.25587 -0.26243 0.35433 0.33058 -0.28593 0.2499 0.54688 -0.25848 -0.049551 0.79942 0.17268 0.10424 0.25434 0.30262 -0.031045 0.14275 0.13516 0.2057 -0.33249 -0.42173 -0.13781 -0.13529 0.012718 0.17658 -0.3731 0.24611 0.0071569 0.028189 0.013863 0.32487 0.21684 0.034593 0.20572 -0.061705 -0.12741 -0.2883 0.058994 -0.16542 -0.092305 0.012004 -0.21042 -0.13123 0.082222 0.32984 0.082611 -0.25193 0.68845 -0.82303 -0.19176 
最 0.054066 -0.15304 -0.1116 0.14172 -0.21975 -0.17476 -0.19078 -0.018328 0.21187 0.24355 -0.12542 -0.17973 0.087431 -0.2237 -0.41687 0.034577 0.18823 0.32769 -0.18182 -0.44076 0.17812 0.085173 0.0076017 -0.43615 0.13608 0.57228 0.24883 0.37578 0.29143 0.26462 0.25638 -0.12638 0.19145 0.12673 0.093386 -0.11185 0.25196 -0.56444 -0.18344 0.41501 -0.81746 -0.030867 -0.26729 -0.31292 0.1136 -0.28987 -0.035828 0.056424 0.085394 -0.27434 -0.15958 -0.22808 -0.28823 0.33015 0.30745 -0.01299 0.23247 0.45182 -0.077244 -0.34258 0.61567 -0.11864 0.57983 0.24819 0.19732 0.17975 0.12914 0.19586 0.54252 -0.27683 -0.13779 0.33344 -0.87584 0.31276 -0.30931 0.17771 0.17869 0.11429 0.047057 0.15732 0.30303 -0.025089 -0.04425 0.36419 -0.05765 -0.16753 0.057354 -0.10898 -0.33299 0.0056635 0.073683 -0.19041 0.020597 0.020016 0.64929 0.32012 -0.20626 0.7347 -0.8374 -0.25132 
低 0.073384 -0.054884 0.12466 0.24704 0.19438 -0.20518 0.045174 -0.022589 0.41315 0.42971 0.51496 -0.43055 -0.20345 -0.24865 -0.21 -0.47102 -0.15372 -0.32273 -0.49946 0.009596 -0.59646 0.14563 -0.075512 -0.47425 0.04185 0.30244 0.24462 0.45578 -0.40715 -0.1002 0.46206 0.19889 -0.055872 0.072412 0.012434 -0.37859 0.20614 -0.43806 0.098111 -0.27365 -0.68842 0.098212 -0.27061 -0.78734 0.13401 -0.10925 0.2821 0.16851 0.34112 -0.47392 -0.30752 -0.18013 -0.33472 0.32123 0.037481 -0.10928 -0.45144 0.37423 -0.1044 -0.93793 0.46612 -0.12516 0.66342 0.057969 0.1793 -0.12582 0.19677 0.17658 0.22138 -0.45085 -0.026595 0.3228 0.03315 0.49558 -0.61768 -0.2004 0.38863 -0.33429 0.23202 -0.29829 0.50556 0.13582 0.054381 0.53641 -0.071109 -0.26971 -0.18952 -0.053919 -0.49187 0.0010111 0.027089 0.24628 0.37992 0.23212 0.73811 0.45856 0.098503 0.70815 -0.80278 0.017955 
清 0.14242 0.21836 0.44779 -0.23022 0.20115 0.30821 -0.29982 -0.11045 0.27126 -0.024797 -0.14562 -0.0082055 -0.10946 0.3772 -0.24714 -0.36632 -0.1649 0.022785 -0.3003 0.53544 -0.56962 0.40755 0.13832 -0.14063 0.11882 -0.047559 -0.11631 -0.0018243 0.23382 0.18439 0.79543 -0.064195 -0.30135 -0.32078 -0.34714 -0.24517 0.17948 -0.27024 -0.017656 -0.56488 0.11931 -0.2037 -0.061091 0.27008 0.22286 -0.05622 0.25611 -0.37938 -0.05434 0.039033 0.00081892 -0.17368 -0.42149 0.46267 0.030352 -0.10633 -0.14519 0.29856 0.57754 -0.047192 0.29089 0.08216 0.62963 0.63489 0.40824 -0.21787 0.043138 0.52198 0.29952 -0.11453 -0.016175 -0.046109 0.17311 0.19965 -0.083661 -0.18002 -0.24489 -0.064274 0.24908 -0.28232 0.40628 -0.54757 0.55384 0.032416 -0.32832 -0.15338 -0.25571 0.35795 -0.13709 -0.28463 -0.06383 -0.17626 0.3213 0.1053 0.0038021 0.070586 -0.75839 0.53958 -0.73401 0.11553 
空 0.45645 -0.38108 -0.41674 -0.70385 -0.0023926 0.17418 -0.23079 0.36152 0.092879 0.35761 -0.65069 -0.85841 0.10394 -0.23985 0.026326 -0.29268 0.12984 -0.29992 -0.66597 -0.34645 -0.2528 0.4256 0.12529 0.079683 -0.33179 -0.50832 0.18101 0.089068 0.17127 -0.20902 -0.034105 -0.32088 -0.14638 0.02314 -0.20511 -0.11398 -0.58638 -0.39085 -0.54198 0.59244 0.18477 -0.1784 -0.035769 0.34875 0.54474 0.47166 0.53309 0.5257 0.21156 -0.69917 0.13397 -0.47367 -0.59172 0.64317 -0.11252 0.36674 0.42991 0.4089 0.084725 0.04627 0.36133 0.23385 -0.47891 0.021526 0.0042709 -0.020189 -0.31916 -0.3176 -0.04089 -0.024009 0.095535 -0.093789 0.71974 -0.023244 0.08923 0.69939 0.71863 -0.030039 -0.044607 0.68922 0.33838 -0.30426 -0.15737 0.32943 0.11919 0.85723 0.23647 0.44483 -0.31333 0.2786 -0.21456 -0.5688 0.2232 0.28305 -0.75523 0.67879 -0.23775 0.45021 -0.16721 0.10455 
查 0.49811 -0.089571 0.0759 0.053245 -0.4617 0.23171 -0.26204 0.026369 0.045625 -0.31736 0.45291 0.11946 -0.063888 0.2471 -0.51319 0.14036 -0.069342 0.24143 -0.24081 -0.14348 0.3678 0.67951 -0.11611 0.11279 -0.19215 0.018193 0.094566 0.3363 -0.17746 0.13657 0.25512 -0.48909 -0.40891 -0.25822 -0.39142 -0.18995 0.080898 -0.17679 -0.17887 -0.30475 0.23174 -0.30868 -0.21439 0.11634 0.31116 0.11243 0.19939 0.2696 0.17023 -0.40402 -0.31846 -0.23223 -0.38624 0.3119 0.20057 0.17613 0.12862 0.17066 -0.083142 -0.061646 0.14099 0.021212 0.095262 -0.20207 -0.021491 0.046061 -0.29252 -0.19251 0.30158 -0.16641 -0.27314 -0.157 -0.26361 -0.040702 -0.022924 -0.023145 0.073193 -0.54234 -0.057357 -0.029395 0.28512 -0.20378 -0.11185 0.30375 0.23257 -0.13186 -0.33987 0.14729 -0.01058 -0.11053 0.23067 -0.38098 0.39628 0.27525 -0.16904 -0.18975 -0.16704 -0.13403 -0.53623 -0.035145 
询 0.22692 -0.29139 0.32776 -0.060905 -0.3264 -0.043987 -0.64743 0.55667 0.37374 -0.16055 0.59995 0.086043 -0.18431 0.56068 -0.53398 -0.30024 -0.25152 0.68331 -0.26957 -0.49957 0.11286 0.92097 -0.11532 0.047118 -0.13694 -0.60041 -0.10785 -0.051771 -0.2998 -0.12662 0.27094 -0.41057 -0.32737 -0.27311 -0.54753 0.13662 0.38761 -0.44683 -0.059114 -0.13872 -0.16912 -0.46727 -0.15543 0.32813 0.19628 0.053741 0.4422 -0.080893 0.040045 -0.62821 0.047391 -0.05763 -0.49073 0.18674 -0.1304 -0.044178 0.40188 0.14707 -0.12452 -0.4172 -0.035204 0.30388 -0.16632 0.098196 0.30366 0.17051 -0.37553 -0.37263 0.40388 0.083171 -0.39662 0.51663 -0.18269 0.22932 -0.45369 0.17508 -0.35743 -0.26027 -0.32477 0.16608 0.68973 -0.11661 0.23364 0.48182 0.13937 -0.51709 -0.22883 0.67412 -0.049548 -0.024156 0.069426 -0.32465 0.31012 -0.034834 0.35906 -0.17662 -0.39239 -0.045215 -0.76973 0.12764 
短 0.25383 -0.2552 -0.32448 -0.084806 -0.099331 0.44558 -0.62563 0.21438 0.2962 -0.30546 0.1426 0.5799 0.026007 -0.29736 -0.40673 0.028093 -0.21873 -0.22135 0.026867 0.82736 -0.20149 -0.30643 -0.63942 -0.42064 0.54702 -0.48729 0.27509 -0.44218 0.33858 -0.68933 0.4121 -0.13834 0.41527 -0.31868 -0.094622 -0.14881 0.039348 -0.43731 0.0086911 -0.37983 0.34698 0.1829 0.32059 0.26462 -0.06743 0.28749 -0.26931 -0.092267 0.12285 -0.42167 -0.26542 -0.58583 -0.071384 0.043212 -0.082414 -0.1468 0.89373 0.038125 0.0012457 -0.10993 0.71498 -0.52047 0.52128 0.38346 0.045334 0.081848 0.11937 0.66237 0.1548 -0.17425 -0.060896 0.081699 -0.25931 0.26494 -0.4244 -0.20489 0.036585 -0.10917 -0.18597 0.2387 0.10003 -0.32588 0.26493 1.0112 0.39072 0.045515 0.71023 -0.27897 0.15921 0.13327 0.17621 -0.34331 0.89648 0.44187 0.26988 0.37753 -0.42584 0.21702 -0.46572 -0.13179 
信 0.28786 -0.028729 -0.099571 -0.27279 -0.043867 -0.53738 0.30717 0.39769 -0.10043 -0.18391 -0.092998 0.074853 -0.038684 -0.51949 -0.17265 -0.26117 0.4731 0.30244 -0.16894 0.092075 0.0072091 -0.16804 -0.12895 0.055643 0.19678 -0.073476 -0.20951 0.30164 -0.26348 0.25255 0.30818 0.23015 -0.58592 -0.12932 -0.23431 -0.53973 0.18586 -0.074279 -0.15297 -0.14057 0.38236 -0.052095 0.00015122 -0.34695 0.0028772 0.12736 -0.29081 -0.27836 0.24129 -0.54301 -0.33669 -0.58052 -0.43027 0.26014 0.28333 0.28955 0.065687 -0.3913 0.13943 -0.087063 0.39595 -0.11328 0.58954 0.4445 -0.14388 0.27631 -0.098037 0.33415 0.8224 -0.29128 -0.080217 0.12778 -0.046795 0.59126 -0.78358 0.062288 0.61553 -0.10655 -0.034544 0.37954 -0.12683 -0.375 0.46111 0.36439 0.0083947 -0.27171 0.55768 0.12311 -0.14183 0.33242 0.3318 -0.20499 -0.078428 0.16366 0.50233 -0.29265 0.2876 0.33507 0.061715 -0.26498 
购 0.16219 0.11637 -0.1934 -0.072512 0.065409 0.011377 -0.10938 -0.054905 -0.055152 -0.16637 0.32446 -0.11008 -0.04927 -0.26891 0.28605 -0.39317 0.099888 -0.45328 -0.075946 0.13368 0.69216 0.56325 -0.47372 -0.077587 0.15413 0.18546 -0.074258 -0.010122 0.15378 0.42465 0.61587 -0.22175 -0.46706 -0.14343 -0.44223 -0.23061 -0.090385 -0.37106 -0.56708 -0.14796 0.26671 -0.67333 -0.081483 0.53872 0.31944 0.17754 0.099228 -0.043129 -0.11385 -0.29622 -0.27534 -0.62609 -0.19804 -0.11019 0.11856 -0.25943 -0.39775 0.18738 0.18024 -0.11056 0.16099 0.22104 0.54762 -0.030356 0.098477 0.27447 0.012647 -0.43448 0.14177 -0.58421 -0.032457 -0.39207 -0.19063 0.40835 -0.38468 0.24671 0.19153 -0.15954 -0.36208 0.12193 0.59189 -0.056524 0.47296 0.31997 0.07848 -0.25031 -0.12538 0.11441 0.11199 -0.53653 -0.23881 0.12346 -0.0087648 -0.286 0.056014 -0.011882 -0.16506 0.15486 -0.17002 -0.10485 
买 0.54202 0.26044 -0.13923 0.0068151 -0.24782 -0.10874 0.079983 -0.17595 0.1725 -0.17363 0.54708 -0.13903 -0.065461 0.15347 -0.012058 -0.34989 0.048804 -0.16152 0.041965 0.14287 0.41964 0.29057 -0.22129 -0.22381 0.036965 -0.17236 0.17653 0.20811 0.094102 -0.0041437 0.17966 -0.026517 -0.0014713 -0.24155 -0.25118 -0.059721 -0.19744 -0.7461 -0.58796 0.11169 0.29761 -0.5688 -0.19013 0.21387 0.32093 0.42369 0.56557 0.3608 -0.038312 -0.23679 -0.13659 -0.51685 0.12873 0.14017 0.45689 -0.61511 0.080039 0.17168 0.14936 -0.15688 0.056926 0.037127 0.47336 0.22093 0.47597 0.23351 0.27257 -0.40404 0.19998 -0.75231 0.041461 -0.2007 0.13043 -0.24896 -0.44435 0.28157 0.16724 0.20142 -0.3954 -0.13392 0.33036 -0.16215 0.44897 -0.11131 -0.0032942 -0.15094 0.09826 -0.068779 -0.081083 -0.45515 -0.15342 -0.017965 0.006261 -0.36602 0.034102 0.30843 -0.27809 0.17482 -0.18792 -0.23568 
即 0.048999 -0.47206 0.49044 0.086282 -0.02009 -0.077547 -0.48021 0.028528 0.17123 -0.48478 0.22885 0.19714 0.20717 0.25791 -0.23259 -0.038739 0.15581 -0.26292 0.095401 -0.1575 -0.15507 0.20949 -0.4636 -0.12902 -0.032401 0.24407 0.70976 0.13313 0.019559 -0.31735 0.33962 -0.832 0.028802 0.83448 -0.089919 0.3065 0.3647 0.20285 -0.30275 0.088275 0.061838 -0.18709 -0.3809 0.35273 0.22332 0.018761 -0.20354 -0.31063 0.10019 -0.15545 -0.28135 -0.28241 -0.12121 -0.71041 0.10374 0.29595 -0.1054 0.52852 -0.22615 0.0064793 0.39267 0.028298 0.56494 0.70487 0.42994 -0.24752 0.00016944 -0.0093983 1.0537 -0.69582 -0.235 0.11639 0.27034 0.14004 -0.30988 0.31249 0.12947 -0.7316 0.36664 -0.41496 0.061051 0.055328 0.12578 -0.29824 -0.078516 -0.22033 -0.48556 0.42307 0.2472 0.28396 0.031727 -0.24246 0.043899 0.37216 -0.20542 0.23911 -0.40344 0.041906 -0.58717 -0.00046753 
将 0.16015 0.10431 0.15674 0.25941 -0.056626 -0.10757 -0.37209 0.37146 -0.10153 -0.51357 0.90092 0.18365 -0.0018043 0.26395 0.014987 0.029389 -0.42907 -0.27306 0.062553 -0.19464 -0.50101 -0.14064 -0.34922 0.18439 -0.23722 0.18544 0.54485 -0.5661 -0.23166 -0.056346 0.026488 0.043046 -0.047536 0.15858 -0.36265 -0.19737 -0.13459 -0.21393 0.043669 -0.34001 -0.36946 -0.30843 -0.31403 -0.028297 0.18551 -0.045509 -0.051505 0.23164 0.38585 -0.61023 -0.81382 -0.25833 -0.26089 0.4639 -0.29546 0.30303 -0.080991 0.40288 -0.16784 0.21666 0.12211 0.06834 0.29778 0.15899 0.53371 -0.14432 -0.47493 -0.057094 0.85213 -0.042805 -0.73225 -0.22463 -0.050151 0.16701 0.14917 0.37765 0.051815 0.40638 -1.0046 -0.1605 0.63375 0.15834 -0.1572 0.14491 0.52756 -0.315 0.14597 -0.21316 -0.52001 0.29858 -0.3312 -0.29379 -0.092274 0.011359 -0.34312 0.30399 -0.16534 0.13975 -0.1095 0.27858 
到 0.014767 -0.2974 0.2685 0.056977 -0.2574 0.05622 -0.052833 0.8874 0.084363 -0.26512 0.33398 0.37131 0.1135 0.045946 -0.37809 -0.11648 -0.018474 -0.052023 -0.38139 0.097478 0.2422 0.2184 -0.12603 -0.24122 0.21289 -0.0059864 0.39104 -0.53109 0.065609 0.010527 0.10672 -0.13364 0.031157 -0.00019275 -0.1196 0.050254 -0.30169 -0.079087 -0.25651 0.27432 0.31409 -0.36899 -0.12022 0.12583 0.164 0.20608 0.19481 -0.1233 0.33933 -0.16121 -0.51363 -0.37115 -0.22697 0.051766 0.10027 0.1246 0.06218 0.54868 -0.060966 -0.53069 0.37302 -0.15042 0.14432 0.19475 0.033648 -0.14532 0.47212 0.01765 0.20942 -0.32241 -0.094807 -0.047964 -0.031064 0.028836 -0.25306 0.0021149 0.088093 -0.034897 0.021712 0.22276 0.39593 -0.51538 -0.036218 0.1317 -0.3352 -0.10826 -0.13301 -0.14902 -0.39797 0.33017 -0.0019206 -0.41928 0.38258 0.034427 -0.15875 0.18518 -0.27998 0.288 -0.14391 -0.25843 
要 0.23777 -0.047141 0.35994 -0.19339 -0.070587 -0.18663 -0.42162 -0.026562 0.19877 -0.14466 0.46274 0.084607 -0.16398 0.37442 0.16662 0.11221 0.2194 0.36067 -0.15132 0.4361 -0.10701 -0.18604 -0.13378 -0.3657 -0.18745 -0.18304 0.17185 -0.019421 0.055487 0.11148 0.12607 0.060184 -0.060356 -0.080656 -0.23771 -0.20038 -0.12266 -0.45177 -0.47863 -0.065456 0.1782 -0.38313 0.40708 -0.035546 0.26401 -0.18305 0.29074 -0.078242 -0.19351 -0.26168 0.15793 -0.26156 0.18302 0.21414 0.15088 -0.16238 -0.010519 0.38571 0.13217 -0.10431 0.16093 -0.35128 0.17635 0.3768 -0.026761 0.0391 -0.09913 0.21892 0.31682 -0.42525 -0.31052 -0.10682 0.0093461 0.22321 -0.26061 0.1367 0.27741 -0.0015784 0.32624 0.066939 0.26951 0.11966 -0.17113 0.58544 0.014201 -0.15395 0.34934 0.051084 -0.32522 -0.047666 -0.11663 -0.031051 -0.045067 0.29937 0.11595 -0.34495 -0.065819 0.52871 -0.39907 0.18958 
账 0.35478 -0.088117 -0.10957 0.11649 -0.67646 -0.1841 -0.35211 0.20791 0.041678 -0.5248 0.032679 0.40855 -0.019722 0.023101 -0.44281 -0.29228 0.15667 -0.0065947 -0.064397 -0.38847 -0.20505 0.3557 0.039184 -0.05696 -0.2807 -0.15867 -0.014308 -0.25862 0.10454 0.17449 0.26862 -0.42249 -0.16679 0.34112 0.12682 -0.024599 -0.29631 -0.4503 -0.13412 -0.12422 0.39784 0.011802 0.2023 -0.028678 -0.14521 -0.33489 0.27363 -0.2696 -0.022766 -0.10432 -0.45535 -0.015886 -0.20984 -0.18558 -0.16476 -0.39848 -0.058242 0.48873 0.23922 -0.075302 0.4504 -0.44656 0.16013 0.16289 0.52516 -0.10745 0.14543 0.091255 0.28156 -0.08369 -0.29951 -0.31029 0.099233 0.44592 -0.18527 0.45221 0.084003 -0.1011 -0.2673 0.38766 0.38772 0.02411 -0.10161 0.241 -0.11965 -0.11693 -0.32613 0.2842 -0.14677 0.17027 -0.053438 -0.41521 0.36594 0.36136 0.0027486 0.47518 -0.116 0.24206 -0.17615 0.1557 
单 0.23131 0.20738 0.14713 0.033351 -0.090205 -0.016586 0.069495 0.56782 -0.41719 -0.17882 0.0040493 -0.13429 0.029302 -0.25436 -0.12418 -0.2556 -0.033743 0.019641 -0.23034 -0.28151 -0.029907 0.29571 -0.2871 -0.26532 0.15012 0.044981 0.42328 0.064463 0.17458 -0.16526 0.64203 -0.62812 -0.14488 -0.041359 0.081803 -0.19312 -0.12115 -0.30202 -0.58731 0.044796 -0.078275 -0.372 -0.082473 0.061804 0.2133 0.14145 0.23206 0.01597 -0.025883 0.28827 0.041232 0.059383 -0.65195 -0.027941 0.61702 0.1281 -0.036726 0.68235 0.12384 -0.31065 0.23076 -0.10942 0.23626 0.054589 0.25714 -0.13966 -0.18564 -0.21708 0.62363 -0.10488 -0.046554 -0.0066073 0.0986 0.54712 0.088569 0.10656 0.041924 0.18831 -0.26095 0.25363 0.23052 -0.2068 0.26546 0.37974 -0.14592 -0.21114 -0.16562 -0.0068544 0.078158 -0.54231 0.2861 -0.6495 0.11715 0.23597 0.076965 -0.076605 -0.50045 0.40873 -0.36714 -0.018387 
为 0.60572 -0.0054354 0.27149 0.098706 -0.20864 -0.054137 -0.11493 0.17633 0.082791 -0.089611 0.34145 -0.1398 -0.11517 -0.0030891 -0.28498 -0.064487 0.087867 -0.20285 -0.07306 0.20902 -0.068416 0.25441 -0.15917 0.25355 0.049201 -0.3247 0.049203 -0.040044 0.15628 0.31035 0.22903 0.042912 -0.14154 0.13879 -0.28304 0.057489 -0.03948 -0.03096 -0.031476 0.045923 -0.20418 0.22006 0.298 -0.14484 0.27097 0.32688 -0.0088194 -0.56435 0.34337 0.24429 -0.09059 -0.072547 0.064937 -0.12305 -0.20365 -0.55055 0.052967 0.21866 -0.3082 -0.0020143 -0.092803 0.10789 0.43099 -0.49916 -0.061034 0.15353 0.091336 0.28026 0.22837 -0.018924 -0.38439 -0.197 0.11877 0.10654 0.051691 0.30933 0.60806 0.12894 0.40301 0.25416 0.18778 0.0069926 0.12449 -0.031921 0.24559 0.2449 0.32388 -0.35521 -0.15697 0.10689 0.18982 0.12445 0.14052 -0.21838 -0.02081 0.046003 -0.48416 0.35488 -0.35562 0.04572 
什 0.33265 -0.4052 0.092063 0.12019 -0.14275 0.079367 -0.25155 0.26599 -0.0022304 -0.14152 0.028272 0.067824 -0.2488 -0.28319 -0.081617 -0.17818 -0.26759 -0.075693 -0.16019 0.10682 0.40956 0.084258 -0.46674 0.058635 -0.14134 -0.098917 0.14728 -0.060417 0.058346 0.0015094 0.083966 -0.10992 -0.42256 0.27813 -0.39697 0.046089 -0.027567 -0.26304 0.017984 -0.14075 -0.096416 -0.084034 0.49677 -0.094963 -0.020006 -0.2935 0.2438 -0.10581 0.16659 -0.42945 -0.054521 -0.10801 -0.29444 0.080865 -0.069062 -0.69373 0.0073185 0.429 -0.38261 0.057472 0.40693 0.047167 0.20206 -0.14116 -0.094945 -0.061375 0.051589 0.29195 0.3899 -0.48545 -0.16116 -0.2588 0.20363 0.29595 -0.090278 0.27331 0.39521 0.34447 0.0073825 0.19915 -0.064484 -0.33288 0.073556 0.097105 -0.14228 0.11629 0.30511 -0.21266 -0.37765 -0.062424 0.17869 -0.026544 0.30344 -0.16493 0.062148 -0.045675 -0.021399 0.28306 -0.67989 -0.17043 
交 0.26263 -0.055405 0.00537 -0.10598 -0.043524 -0.21974 -0.28373 0.20244 -0.15498 -0.32523 -0.1283 -0.017833 -0.066017 -0.040191 -0.028109 -0.33127 0.40571 -0.2738 -0.18671 0.051106 -0.41501 0.067632 -0.31527 0.08583 -0.25814 -0.045474 0.18639 -0.38939 -0.053431 -0.39773 0.30487 -0.31632 -0.33179 0.2882 -0.039857 0.0017704 -0.30148 -0.39065 -0.48765 0.15038 0.16657 -0.91736 0.74014 0.042791 0.075332 0.22217 -0.10753 0.26487 -0.41492 -0.68336 0.32674 -0.47184 -0.07691 0.14761 0.24583 -0.02495 -0.039509 0.55762 0.26933 0.32269 -0.13761 -0.61153 0.6491 -0.0027673 0.1688 0.31654 -0.062092 0.27821 -0.073847 -0.319 -0.11178 -0.42213 0.10093 0.52117 -0.071964 0.046879 0.077471 0.34458 -0.32533 -0.022181 0.15931 -0.24822 -0.066901 0.2292 0.173 -0.66421 0.0059403 0.121 0.039064 -0.49936 -0.14244 -0.60241 0.471 0.29196 0.25168 0.23057 -0.20077 0.08664 -0.04338 0.0043 
易 0.47738 0.077184 -0.1485 -0.0024195 -0.087754 -0.057839 -0.34925 -0.13479 -0.27685 -0.39483 0.048765 -0.10629 0.19243 -0.26615 -0.14983 -0.84031 0.14865 -0.15633 -0.098299 -0.027168 -0.0076788 0.11794 -0.52987 -0.13685 -0.028458 -0.15336 -0.14086 0.006958 0.072316 -0.42432 0.72297 -0.35098 -0.13633 0.41456 -0.027065 -0.23275 -0.38619 -0.62669 -0.53546 0.22606 0.12845 -1.0196 0.30535 0.0056904 -0.030792 0.19413 0.034369 0.23369 -0.42796 -0.20599 -0.11949 -0.82187 -0.69719 0.2254 -0.4988 0.083763 0.029859 0.20291 0.052177 0.11605 0.26152 -0.52052 0.43935 -0.22888 -0.14193 0.22427 -0.34685 -0.22392 -0.31165 -0.29012 -0.13082 -0.28981 0.23236 0.7397 -0.13285 -0.14065 0.21172 0.30226 -0.41907 0.16169 0.23104 -0.45557 0.24538 0.041199 -0.10989 -0.44521 0.061361 0.31923 0.086145 -0.35424 -0.22031 -0.39994 -0.012861 0.42544 -0.1575 0.67202 -0.01175 -0.68904 -0.66866 0.053455 
透 -0.31909 0.2114 -0.6705 0.04064 0.15146 0.0086677 0.1785 0.0071625 0.26371 0.53403 0.0075315 -0.64962 0.094674 -0.0071391 -0.24469 -0.14275 0.1531 -0.10903 -0.37093 -0.26247 0.096558 0.042689 0.38577 -0.04785 0.26393 0.02102 0.22637 0.046014 -0.15192 0.24392 0.63139 -0.28866 -0.37722 0.51465 0.60325 -0.48734 0.13563 -0.28094 -0.31006 -0.24204 -0.092921 -0.21156 -0.016858 -0.72001 0.49944 -0.77455 0.70357 0.3099 -0.19585 -0.22486 0.46602 -0.15891 0.079142 0.23511 -0.19606 -0.34502 -0.059828 0.47294 -0.41846 -0.070769 0.17889 -0.2597 0.10508 -0.19318 0.99718 -0.15789 -0.090998 0.55493 0.18075 -0.42683 -0.36363 0.50531 -0.16923 0.022577 -0.35456 0.30031 0.52855 -0.038885 -0.38038 -0.29425 0.25074 -0.52348 0.062241 0.43261 0.35913 -0.045671 0.60978 0.12532 -0.078079 0.2976 0.21693 0.26501 0.61539 -0.14376 0.478 0.19547 -0.30674 0.53012 -0.70247 -0.3331 
继 -0.31098 0.081131 0.027701 -0.03723 -0.083718 0.45109 -0.3488 -0.38293 0.11712 -0.074559 -0.11667 0.26778 0.24279 0.1853 0.40759 -0.27197 0.18949 -0.24915 -0.057133 0.0090499 -0.16525 0.25172 -0.076473 0.11579 -0.63726 0.17024 0.25447 0.02834 0.21785 -0.25908 0.052577 0.13818 0.0070154 0.36738 -0.24784 -0.38519 0.36861 -0.56419 -0.27907 -0.44227 0.11732 0.016008 0.67739 0.1789 0.47013 -0.62724 0.22364 0.053989 0.073403 -0.10607 0.38321 0.50642 -0.39133 0.44837 -0.8165 -0.18642 0.011688 0.33534 0.20375 -0.38971 0.5599 -0.18656 0.8935 0.18969 0.98459 0.38911 -0.23946 0.32073 0.85388 -0.32034 -0.038132 0.34245 -0.072753 0.39451 -0.40134 0.37261 0.40822 0.16957 0.30079 0.32548 0.39749 0.075361 0.24984 0.2161 0.034746 0.11326 0.39044 0.46993 -0.42712 -0.045282 0.34616 0.15722 -0.023601 -0.014816 -0.19514 0.27551 -0.61385 0.86673 -1.0463 -0.17518 
续 -0.1106 -0.33781 0.014932 -0.17365 -0.0019972 -0.072442 0.25108 -0.14924 0.42602 0.21368 0.39238 -0.29886 -0.27041 0.28205 -0.5164 -0.46612 0.028682 -0.0077723 0.38279 0.54899 -0.023066 0.15525 0.034524 -0.38907 0.25955 0.2457 0.28876 0.036802 0.020899 -0.18159 -0.034573 0.0072969 0.13701 -0.18571 -0.0094132 0.032632 0.31265 -0.060474 -0.21271 -0.0089628 -0.33471 -0.17596 0.074392 0.21016 -0.017917 -0.25345 0.55572 0.23429 -0.096449 -0.43966 -0.34049 -0.62072 -0.52609 0.071654 0.25673 -0.62219 -0.36519 0.25444 0.40548 -0.48831 0.20821 -0.54412 0.83426 0.8694 0.69709 0.52865 0.21316 -0.13723 0.53562 -0.40836 -0.50977 0.03616 0.13223 0.31019 -0.024164 0.22236 -0.036435 0.45853 -0.2691 -0.074601 0.22297 0.40109 0.98317 0.38232 0.25493 0.036761 0.41723 0.10646 -0.08355 0.20351 0.091383 -0.12836 0.36401 0.40746 0.20596 -0.50987 -0.13409 0.51036 -0.51658 -0.55635 
双 -0.030204 0.37354 -0.51551 -0.16642 -0.62053 -0.2645 -0.32216 0.11491 -0.72923 0.87159 0.42854 0.50819 -0.89632 0.42911 -0.045034 0.1591 -0.011786 -0.34582 -0.41422 0.22326 0.42877 0.86178 -0.73122 0.43694 -0.46673 0.035266 0.035922 -0.28364 -0.27633 0.33767 0.56062 -0.29614 -0.10143 0.15659 -0.39356 0.086605 0.098878 0.6571 -0.34043 -0.018711 -0.12443 -0.27503 -0.49616 0.15795 0.19624 -0.12974 -0.18543 0.27272 0.12391 0.0451 0.10547 -0.38428 -0.59262 0.30809 0.13838 -0.37546 0.00047009 -0.28769 0.49018 -0.16259 0.90892 -0.049297 0.32559 0.05349 0.38971 0.1874 -0.010804 0.6175 -0.19403 -0.80985 0.298 -0.29395 -0.56174 0.58199 -0.33412 0.32462 -0.49492 -0.36334 -0.43382 0.073094 0.87274 -1.0898 0.4812 0.14606 0.1583 0.15682 -0.12171 0.079091 -0.12339 -0.13114 0.3339 -0.35608 0.31651 0.73003 0.44373 0.19928 -0.56823 0.067227 -0.62897 -0.55089 
有 0.58798 0.096095 -0.085955 0.072504 -0.45955 -0.25022 -0.00072683 0.24489 0.036524 0.020364 0.27433 -0.10617 0.19216 0.060335 -0.092952 -0.31062 -0.036172 0.11331 -0.15566 -0.17242 0.14391 0.031768 -0.092565 0.076856 0.013076 -0.096093 0.3845 -0.31649 -0.15956 0.22063 0.18096 -0.14955 0.011269 0.2135 -0.20435 -0.35232 0.014455 -0.098466 -0.2614 0.10967 0.1184 -0.43321 -0.044316 -0.21774 0.38594 0.11678 0.1242 -0.14906 0.18608 -0.52975 -0.057936 -0.31239 -0.077473 0.51207 -0.13977 -0.26071 0.13437 0.50669 -0.26293 -0.053407 0.18421 0.10973 0.28631 -0.08859 0.050832 0.050017 -0.019738 0.029897 0.30372 -0.56372 -0.11654 -0.099134 0.11245 0.27195 -0.036139 0.12851 -0.08546 0.15983 -0.028836 -0.049052 0.2508 -0.45432 0.18752 0.26049 -0.16281 0.39481 -0.043728 0.36835 -0.09016 0.12035 0.20859 0.24013 0.19392 0.25327 0.31125 0.043375 -0.22071 0.28708 -0.2773 -0.15217 
临 0.20154 -0.36983 -0.46362 -0.043328 0.0091551 0.62153 -0.24876 -0.30046 -0.82512 0.445 0.39927 -0.19764 0.017758 -0.17553 -0.29074 -0.23785 0.44632 -0.090068 -0.65923 -0.10897 0.032955 0.16397 0.10541 0.35483 -0.07597 -0.099633 -0.36012 -0.16257 -0.22611 0.55281 -0.40495 0.095326 -0.18227 -0.17836 0.0068649 0.27617 -0.36966 -0.15307 -0.24801 -0.27725 -0.32434 -0.010301 -0.10839 -0.18079 0.40914 0.059079 -0.007186 0.17845 -0.17054 0.16992 0.14481 0.15226 -0.7458 0.33915 0.039347 -0.03728 -0.33208 0.76134 0.82801 -1.0721 0.67629 0.16531 0.26971 0.10988 0.3592 -0.18852 -0.38184 0.56418 0.57004 -0.79029 0.22862 0.21572 -0.047104 0.57228 -0.74615 0.84842 -0.22655 -0.39393 -0.091409 -0.26167 0.21906 -0.41047 0.042077 0.11419 0.18367 -0.041812 0.43391 -0.30198 0.30744 -0.22029 0.10536 0.058706 0.60884 0.37337 0.4072 0.48921 -0.24941 0.27264 -0.89661 -0.65053 
时 0.38194 -0.36962 -0.079734 0.029005 -0.31856 -0.093164 0.18763 -0.2185 -0.06144 0.24911 0.089553 0.053357 0.021554 -0.20811 -0.0070592 0.068864 -0.19419 -0.1617 -0.30596 0.30008 -0.063195 0.04359 0.067536 0.093888 -0.083783 -0.25586 0.18175 0.01453 0.055363 0.27533 -0.038278 -0.35495 -0.33149 -0.092885 -0.4596 -0.064046 0.0090429 -0.055748 -0.29111 0.02963 -0.29825 -0.22519 0.43254 -0.15511 0.14007 -0.166 -0.1447 -0.12558 0.10612 0.18001 0.12551 -0.20151 -0.42709 0.40985 0.071396 -0.24147 0.10507 0.35718 0.1786 -0.48906 0.38194 -0.16708 0.27063 -0.092334 0.43783 -0.1353 0.11441 0.10172 0.28368 -0.36628 0.02451 -0.35216 -0.32556 0.29888 -0.16275 0.26203 0.2568 -0.012442 0.2725 -0.1612 0.20908 -0.44658 -0.0068529 0.39599 0.13826 -0.2637 0.26215 0.048019 -0.20818 0.023105 -0.26809 -0.42186 0.1517 0.056293 0.15896 0.57642 -0.57511 -0.12682 -0.58232 -0.02629 
额 -0.038065 0.02651 0.023696 -0.0088738 0.062116 -0.037382 -0.079434 -0.15573 -0.041423 0.15009 0.30765 -0.13545 -0.16399 -0.27375 0.12242 -0.27296 -0.12109 -0.13046 -0.50176 0.066527 0.12048 0.034521 -0.025892 0.099131 0.51065 -0.17087 -0.032124 0.11339 -0.20167 0.245 0.019662 -0.28367 -0.35695 -0.071273 -0.051323 -0.056405 -0.12132 -0.2374 -0.013184 0.049718 -0.078167 -0.55355 0.039484 -0.41503 0.27542 0.16984 -0.13818 -0.34727 0.32185 -0.24698 0.0048523 -0.075332 -0.14995 0.065454 -0.063197 0.014076 -0.27648 0.57169 -0.17063 -0.45053 0.31572 -0.080187 0.11611 0.11324 0.29679 -0.32264 0.06674 0.21596 0.40167 -0.4353 -0.34891 0.21801 -0.032962 -0.030055 -0.19367 0.49773 0.20451 -0.31211 -0.09193 0.27379 0.62875 -0.20921 -0.095584 0.29978 0.2654 -0.1535 0.1536 0.31067 -0.43817 0.08057 0.068252 -0.16292 0.32534 0.19909 -0.023926 0.18638 -0.08448 0.16469 -0.69819 -0.10004 
度 0.19414 -0.31779 -0.10909 0.12866 0.23718 0.50321 -0.13746 -0.17059 0.00064582 0.18694 0.37334 -0.22244 -0.2332 -0.036015 0.14121 -0.10174 -0.13925 -0.25269 -0.56372 -0.17157 0.0034334 -0.10253 0.10231 0.13188 0.54367 -0.18967 0.20152 -0.015352 -0.053378 0.43468 0.25366 -0.055862 -0.43395 0.033809 -0.24605 0.18761 -0.18907 -0.20107 0.15443 0.12097 -0.1659 -0.43369 0.12748 -0.55604 0.44376 0.277 0.010048 -0.078395 0.085864 -0.16478 -0.090554 -0.10795 0.034909 0.46446 0.0098822 -0.12445 -0.36425 0.35435 -0.14263 -0.66948 0.38396 -0.25426 -0.04339 0.23513 0.48777 -0.2504 0.22295 0.51141 0.27395 -0.2366 -0.21272 0.064166 -0.23069 0.15892 -0.18409 0.60502 0.1197 -0.2611 -0.063222 0.12175 0.34019 -0.11209 0.12222 0.25595 0.36411 -0.062862 0.039019 0.23578 -0.094758 0.04469 0.18051 -0.17262 0.64662 0.28993 0.49101 0.34392 -0.30617 0.21693 -0.45309 -0.32262 
间 0.5017 -0.29412 0.15614 -0.19193 -0.47821 -0.18684 -0.24201 0.1751 0.036727 0.17951 -0.10833 -0.079307 0.40234 -0.36612 0.037944 -0.089164 -0.27827 0.20736 -0.4633 -0.16301 -0.01937 0.17072 0.05815 0.22244 -0.11977 -0.24385 0.1943 -0.096767 0.42164 -0.032493 -0.16522 0.14405 -0.22316 -0.23135 -0.44932 0.061643 -0.088022 -0.33 -0.15347 0.21299 -0.51542 -0.1045 0.12648 -0.018836 0.14984 -0.072764 -0.35324 -0.12557 -0.11209 0.020434 -0.10163 -0.54348 -0.33949 0.20357 -0.18607 -0.27729 -0.26981 0.52092 0.14768 -0.33243 0.24859 -0.015096 0.1468 0.24261 0.26733 0.03228 0.0089191 0.0098992 -0.031235 -0.79973 -0.012892 -0.13883 -0.41074 0.38062 0.0094258 0.41844 -0.021284 -0.35354 0.18347 0.2314 0.577 0.19325 0.099643 0.48203 0.060695 -0.39589 0.36641 0.31259 0.20699 -0.10152 -0.1754 -0.25772 0.57588 0.21326 0.31092 0.040686 -0.20437 0.15422 -0.76547 0.03179 
办 0.43918 -0.4211 -0.01315 0.26977 0.076873 -0.30798 0.10792 0.34699 -0.11243 -0.1351 0.066217 -0.033668 -0.19722 -0.01615 0.03257 -0.10469 -0.14279 0.12546 -0.22022 0.34526 0.17239 0.58189 -0.56496 0.64523 -0.50521 -0.30629 0.038875 0.12629 0.12728 0.0096276 -0.54353 -0.069874 -0.047304 0.106 -0.089351 0.185 0.45314 -0.43689 -0.55938 0.14702 0.57955 -0.43163 0.42342 -0.031669 0.24182 -0.15735 0.56258 0.069421 0.023193 -0.33558 -0.64773 -0.067712 0.048379 0.83763 0.066 -0.082002 -0.23776 0.20128 0.12394 -0.14818 0.32472 -0.046956 0.11332 -0.026131 0.55284 0.038937 -0.22517 0.1987 -0.070824 -0.024662 0.082447 -0.055859 0.086207 0.22784 0.17892 0.40944 0.37971 -0.56668 0.23688 0.35004 0.21689 -0.2931 0.28649 0.10154 0.059004 -0.079736 0.11675 0.024558 -0.18926 -0.11688 -0.089324 -0.77544 0.10236 0.011036 -0.11982 -0.32998 -0.052836 0.32315 -0.18724 0.13058 
候 0.19787 -0.061834 0.19555 -0.093944 -0.41328 -0.12526 0.024888 0.21963 -0.21616 0.21628 -0.31118 0.10281 -0.17092 0.038136 0.018768 0.2186 0.34087 -0.18286 -0.78763 0.084256 -0.23067 0.055089 -0.40007 0.28262 -0.39291 -0.61062 0.079028 -0.21887 0.34407 0.12916 0.14738 -0.068446 -0.36568 0.10169 -0.5498 0.22404 -0.22046 -0.1389 -0.055134 0.38962 -0.37011 0.067033 0.30388 0.23995 0.29226 -0.11669 -0.37404 -0.68212 -0.18446 0.28912 0.20543 -0.13078 -0.20033 0.054893 -0.060625 -0.40752 -0.10378 0.36732 -0.080087 -0.43025 0.1739 0.1847 0.52942 0.16065 0.23349 0.25609 0.1896 0.23569 0.12395 -0.35098 -0.4416 -0.39405 -0.090741 0.49682 -0.49035 -0.12998 0.38751 -0.022307 0.35136 0.36758 0.1031 0.12585 0.16141 0.10277 0.23407 0.016801 0.58093 -0.11215 -0.16307 0.036722 -0.39977 -0.057877 0.5869 -0.25221 0.10565 0.084927 -0.73543 0.060606 -0.82125 -0.13447 
过 0.19017 -0.18745 -0.016672 -0.11676 -0.65972 -0.041546 -0.1021 0.47302 0.063689 -0.19514 0.095149 0.029109 -0.24342 0.013703 0.059125 -0.0045423 -0.19115 -0.090403 -0.41292 0.54646 0.082704 -0.14256 0.23306 0.51342 0.19313 0.26956 -0.52942 -0.33744 0.29714 -0.032502 -0.062033 -0.1342 -0.0068002 0.164 -0.17766 0.029691 0.26134 -0.20052 -0.12977 -0.096558 0.045595 -0.3104 0.23421 0.055978 -0.054973 -0.094824 0.37909 -0.14602 0.35822 -0.36613 -0.10609 -0.40701 0.042275 0.48517 -0.092026 -0.3754 0.34021 0.16188 0.26647 -0.094001 0.25461 -0.071442 -0.086371 0.2569 0.65271 0.40543 -0.077269 0.30813 0.32604 -0.54971 -0.017707 0.17074 0.22965 0.33459 -0.30549 0.21099 0.2411 -0.32361 0.24847 -0.13196 0.34694 -0.15858 -0.38478 0.28717 -0.21683 -0.098222 0.035189 0.090354 -0.13164 -0.28397 0.18156 -0.26955 0.25457 0.027769 0.20571 -0.35825 -0.52465 0.30009 -0.45601 0.26768 
每 0.60812 0.051942 0.18067 -0.10465 -0.14724 -0.10093 0.2521 0.029586 0.17554 -0.2646 0.0064472 -0.09332 -0.24946 -0.43335 -0.3129 0.064377 -0.084712 0.23969 -0.42786 0.080929 -0.1279 -0.14866 -0.20709 -0.069296 -0.25916 0.09402 -0.054556 -0.38131 -0.020703 0.045788 -0.13847 -0.53702 0.2704 -0.083312 -0.25092 -0.1727 0.26989 -0.648 -0.03172 0.081053 -0.41978 -0.50457 -0.44945 -0.31289 -0.15725 -0.090964 -0.24054 0.080671 -0.14049 -0.19076 -0.051411 -0.48969 -0.37323 0.17725 0.25289 0.32717 -0.053156 0.28091 -0.1179 -0.60005 0.62705 0.13926 0.11562 -0.10997 -0.094374 0.10528 -0.0017328 0.20903 -0.032316 -0.26415 -0.10908 0.2334 -0.46583 0.57008 -0.55993 -0.18808 -0.090671 0.62342 -0.11717 0.37415 0.36023 -0.40085 -0.31903 0.60834 -0.11051 0.27925 0.22854 0.25912 -0.34402 0.20594 -0.1538 0.14989 0.27116 0.0030114 0.39091 -0.44435 -0.46165 1.0599 -0.55059 -0.1238 
月 0.50921 0.014743 0.1072 -0.18607 0.06504 -0.088982 0.26957 -0.092637 0.19057 -0.00094935 0.24772 -0.03263 -0.22376 0.06579 -0.059885 -0.16346 -0.13691 0.042446 -0.26687 -0.1106 -0.50475 0.14137 0.14711 0.18922 -0.42415 -0.071732 0.44824 0.0033157 0.75842 0.3502 -0.024566 -0.095561 -0.064128 -0.0099448 -0.34364 -0.27735 -0.24562 -0.77639 -0.17287 -0.075373 -0.29067 -0.17915 0.0030844 0.069327 -0.09146 -0.19489 -0.22844 -0.051624 0.3282 -0.47532 0.066154 -0.024013 -0.21978 0.077922 0.37709 -0.18567 -0.09906 0.49769 -0.046036 -0.3125 0.63964 -0.14195 0.49669 0.16545 0.018292 0.30754 -0.0023466 0.054851 0.3002 -0.47456 0.50724 -0.31732 -0.19869 0.30017 -0.28558 -0.16397 -0.11734 -0.12466 -0.056812 0.1481 0.32475 -0.30878 -0.24567 0.45252 -0.34443 -0.16993 0.13846 -0.2934 0.2331 -0.36015 0.1404 -0.24787 0.49565 0.33106 0.22492 0.055243 -0.57969 1.1061 -0.84241 -0.25617 
会 -0.0070202 -0.16937 -0.012132 -0.15551 0.010785 -0.39469 -0.24504 0.086114 0.12243 -0.43627 0.26092 -0.030383 -0.21671 -0.25391 0.12463 -0.054584 -0.22347 -0.16524 -0.11252 0.034721 -0.022448 -0.067735 -0.16304 -0.036663 -0.45301 -0.035239 -0.31418 0.30345 -0.43264 -0.014039 0.28265 0.032676 -0.053815 -0.22666 -0.3099 0.011831 0.25752 -0.18376 0.29432 -0.082786 -0.082469 -0.22783 0.34213 -0.22684 0.21878 0.30013 -0.031795 0.029296 0.64141 -0.15436 -0.51094 -0.29948 -0.31741 0.17535 0.064206 -0.072928 -0.36794 0.066628 0.11426 0.16734 0.36064 -0.097994 0.29617 0.26822 0.098659 0.16039 0.46261 0.25862 0.24777 -0.384 -0.39189 0.28749 -0.27276 0.5435 -0.34449 0.21 0.15975 -0.16657 0.018238 -0.065853 0.68071 -0.071629 0.60966 0.48218 -0.1042 0.048489 0.11801 0.20953 -0.35752 0.0063155 0.12896 -0.59573 0.39433 -0.13126 0.3276 0.31695 -0.15913 0.66959 -0.062864 0.38941 
万 0.26276 -0.39589 0.02805 0.27331 0.22376 -0.31876 -0.17052 -0.10366 -0.031412 -0.07639 0.68473 -0.022512 0.0094811 0.5271 0.39097 -0.39624 0.3678 -0.14908 -0.4835 -0.081453 -0.37854 0.49709 -0.51616 0.34726 0.20201 0.1477 0.40685 -0.2033 -0.038033 -0.50065 0.20232 -0.63385 0.49555 0.48126 -0.019172 0.0064176 -0.14696 -0.23537 0.22298 -0.11339 -0.091242 -0.16594 -0.17075 -0.44833 -0.5127 0.40023 0.63706 0.16144 -0.40229 -0.59641 -0.4384 -1.0954 0.19113 0.045149 0.71316 -0.37545 0.44072 0.82913 -0.14541 0.25259 0.6303 0.035027 1.2787 0.014939 -0.14682 0.92164 0.22432 -0.20558 0.24117 -0.070037 -0.37233 0.24732 1.0109 -0.07037 0.080717 -0.1802 -0.12476 -0.21365 0.17101 -0.043441 0.45454 -0.8318 -0.41145 0.38867 -0.36007 -0.22604 0.14716 0.10229 -0.0081701 0.38654 -0.48229 0.32713 0.2659 0.14508 0.15438 0.36259 -0.75388 1.1911 -0.093118 -0.005095 
之 0.49567 -0.52183 -0.60301 -0.056368 -0.097407 -0.56076 -0.33112 -0.20122 0.30711 0.41758 0.63117 0.083786 -0.14453 0.51483 -0.072112 0.13994 -0.086199 0.061353 0.11444 0.21882 -0.18259 -0.025845 -0.1558 0.22131 0.064048 -0.40349 0.12466 0.29911 -0.10931 0.067386 0.058979 -0.10267 -0.019724 -0.28553 -0.34951 0.032814 0.042922 -0.71487 0.3191 -0.088661 -0.11867 -0.44346 -0.24294 -0.0074544 -0.22211 0.20751 0.62814 -0.28256 -0.041673 -0.39144 0.33736 -0.09286 -0.34097 0.28276 0.15471 -0.55933 -0.016511 0.98162 -0.041205 -0.017905 0.50096 -0.54327 0.53882 0.34888 -0.070653 0.4513 0.11262 0.43568 -0.39837 -0.50002 -0.11962 0.53206 0.43234 0.13798 0.0012923 0.16311 0.73357 -0.041725 0.48447 -0.19493 0.028538 -0.067253 0.0076982 0.065718 -0.10692 -0.22488 -0.29654 -0.059666 -0.23878 -0.11799 0.15332 -0.47607 0.27529 0.36258 -0.053158 -0.06479 -0.72085 0.66822 -0.4639 0.057179 
五 -0.011535 -0.076864 0.12867 -0.34124 -0.15866 -0.43041 -0.098068 0.26175 0.17393 -0.2149 0.2641 0.069961 -0.12024 0.25047 -0.19301 -0.16355 0.047168 -0.1992 -0.50508 -0.35064 0.24833 0.1452 0.011538 0.5578 -0.4747 0.12172 0.10317 -0.58639 0.2528 0.26807 0.40681 -0.18903 0.017867 0.5602 -0.24318 -0.33945 0.28264 -0.044171 -0.11171 -0.060061 -0.10267 -0.92894 -0.31391 -0.56789 0.6252 -0.076742 0.23184 -0.19525 0.25083 -0.17428 -0.30931 -0.33963 0.016276 -0.016658 0.11923 -0.39489 -0.13399 0.28968 -0.092088 0.017123 0.21663 0.32593 0.14738 0.17745 -0.17854 0.30313 0.15419 -0.0093559 0.54216 -0.61678 0.37897 -0.064069 0.41585 0.55344 -0.32968 0.041013 0.6851 0.29553 0.29118 -0.14888 0.16821 -0.54474 0.053175 0.65699 0.49352 0.29805 0.041854 -0.18249 -0.11989 0.001813 -0.44166 -0.11356 0.4073 0.34437 0.9789 0.32821 -0.81286 0.81325 -0.029866 0.15692 
利 -0.20261 -0.89219 -0.13669 -0.085848 0.11299 -0.31598 0.031338 0.10939 0.054482 0.049194 0.28862 0.036391 -0.65246 -0.1639 -0.08599 -0.68118 -0.21969 -0.35475 -0.11765 -0.39185 -0.195 0.12078 -0.29661 -0.09826 0.21201 0.48526 0.1241 0.02293 -0.1386 -0.44305 -0.22753 0.041165 0.35048 0.096024 -0.05599 -0.37203 0.43362 -0.22877 -0.16508 0.061923 -0.67906 -0.12835 -0.27708 -0.34704 -0.0024139 -0.20146 0.68743 -0.24951 -0.015829 -0.36656 -0.36634 -0.093283 -0.20139 0.062109 0.59299 -0.40695 -0.81407 0.32376 0.18879 -0.38551 0.52706 -0.18251 0.78672 0.8023 0.22828 0.21309 0.31356 -0.23025 0.38937 -0.40371 -0.21767 0.21822 0.023484 -0.11289 -0.26456 -0.42769 -0.28672 0.21445 -0.1635 -0.21026 0.46241 0.011306 0.084899 0.58256 0.0083879 0.15151 0.26214 0.28758 -0.23632 -0.071774 0.022011 -0.045722 0.011616 0.40474 0.24011 0.42772 -0.47733 0.98797 -0.32761 0.063765 
息 0.29307 -0.37558 -0.2965 0.10351 0.076108 -0.23574 -0.28579 0.62351 0.13127 0.23074 0.28346 0.13245 -0.37607 0.15044 -0.066992 -0.16876 -0.23284 -0.27998 -0.054187 -0.21829 -0.42159 -0.31605 -0.087732 -0.064206 -0.22271 -0.22337 -0.073521 0.058122 -0.21709 -0.13683 -0.060783 -0.16504 0.23457 0.26144 0.17286 -0.18303 0.072589 -0.70716 -0.49107 -0.030791 0.064611 -0.21708 0.29794 -0.25215 0.14889 0.037229 0.20593 -0.33009 -0.041823 -0.24894 -0.035311 -0.29982 0.21933 0.11098 0.04429 -0.52897 -0.28749 0.34705 0.41205 -0.23879 0.47792 -0.0015734 0.35743 0.76424 0.2034 -0.35871 -0.12081 0.088305 0.10992 -0.28395 -0.28597 0.63306 -0.23014 0.50017 0.11554 -0.17395 0.29402 0.13532 -0.012846 0.14593 0.2441 -0.059158 0.26325 0.61692 0.25309 0.11486 0.1163 -0.020211 -0.011964 -0.23986 0.21852 -0.30545 0.16617 0.1299 0.4647 0.064509 -0.5023 0.25039 -0.16245 -0.0028347 
算 0.13435 -0.050931 0.33358 0.18142 0.0037945 -0.47145 0.1676 -0.15434 0.11161 -0.0076441 0.36377 -0.30314 -0.0016743 -0.20054 0.1348 -0.22598 -0.15649 0.33974 -0.069531 -0.15338 -0.059638 0.35501 -0.19025 0.55071 -0.70892 0.060038 0.34276 0.054465 0.30294 -0.23046 -0.18054 -0.10942 0.032914 0.0237 0.067087 -0.31755 0.58752 -0.52945 -0.22776 0.13995 -0.30496 -0.45704 -0.37153 -0.020405 0.27325 -0.052832 0.46959 -0.25853 0.26425 0.086322 -0.1746 0.34847 -0.36899 0.85896 0.31996 -0.4338 -0.14309 0.26641 0.31013 -0.61871 0.417 -0.33058 0.52032 0.82061 -0.43712 0.5706 0.41658 0.11894 0.24832 -0.074048 0.010185 -0.12124 -0.12406 0.28104 -0.11243 -0.26968 -0.066103 0.040555 0.12281 0.35557 0.194 0.095708 0.38584 0.73271 0.087737 0.018706 -0.18452 -0.13542 -0.35464 -0.31669 -0.17005 -0.2061 -0.083335 0.33918 -0.077261 0.42249 -0.38003 0.8211 -0.4669 0.24834 
蚂 0.27035 -0.23499 0.030009 0.052373 -0.15872 -0.055598 -0.21269 0.21006 0.12516 0.044852 -0.051293 0.12016 0.2341 -0.15789 0.050963 -0.1593 -0.18692 0.014695 -0.14118 -0.13048 -0.0073633 -0.099351 -0.18655 -0.17266 -0.012779 0.015434 -0.042559 -0.14288 -0.023182 -0.066638 0.11759 -0.0076512 -0.29185 0.046314 -0.28335 -0.12669 0.18987 -0.2642 -0.049971 0.025897 -0.09001 -0.28535 0.1613 -0.0092155 -0.070043 -0.051218 -0.04263 0.089412 0.25009 -0.012629 -0.11691 -0.39606 -0.0076523 0.31395 0.22448 -0.11298 -0.080028 0.36586 -0.13142 0.035696 0.49108 0.093534 0.18097 0.25178 -0.15278 -0.13306 0.065749 0.24659 0.3761 -0.11507 -0.12749 0.042407 0.24777 0.25733 -0.032928 0.20595 0.29391 0.049266 0.22245 0.079388 0.45485 0.11104 0.12568 0.67676 -0.12245 -0.20409 0.1327 -0.023325 -0.32802 -0.027764 0.11377 -0.24188 0.21711 0.037122 -0.11636 0.046135 -0.54115 0.31104 -0.27417 0.14671 
蚁 0.21987 -0.25881 0.09398 -0.22459 -0.2822 -0.087201 -0.28026 0.23015 0.22736 -0.015609 -0.019038 0.049097 0.16153 -0.17128 -0.034405 -0.22162 -0.0064517 -0.087378 -0.33782 -0.23184 0.11439 0.098644 -0.058172 -0.07842 0.080956 0.011363 -0.067019 -0.17314 -0.095341 -0.024493 0.048572 -0.07275 -0.3524 0.030739 -0.088384 -0.17442 0.11034 -0.18424 -0.0090454 -0.048564 -0.10772 0.018231 0.22808 0.055825 0.093585 -0.0078459 0.07846 0.23075 0.086226 -0.20752 -0.25755 -0.37635 -0.096866 0.37103 0.42243 -0.18575 -0.16016 0.22592 -0.022587 0.018122 0.47621 0.12591 0.26928 0.27763 -0.20224 -0.10187 -0.072241 0.33644 0.3597 -0.17795 -0.20961 -0.034097 0.11946 0.20543 0.12678 0.07798 0.21971 0.070408 0.15995 -0.071097 0.48008 0.048008 0.018592 0.73782 -0.078629 -0.32394 0.1181 0.14973 -0.19289 0.014326 0.10498 -0.13389 0.22851 0.044831 0.23187 0.14207 -0.52691 0.27062 -0.33444 0.082228 
设 -0.15973 -0.22061 0.38923 0.5098 -0.066222 -0.67615 -0.37924 0.15963 0.38579 -0.21644 0.19631 -0.13252 -0.72184 -0.61495 0.26307 -0.11414 -0.24875 0.28016 -0.76719 -0.16367 0.38737 -0.5356 -0.76074 -0.27526 0.0054942 -0.14968 0.20236 -0.30228 -0.13048 -0.34021 -0.021067 -0.22745 0.34597 -0.16104 0.105 0.30274 0.16512 -0.24735 -0.19723 0.19208 0.18537 -0.21799 -0.23074 0.054828 0.02735 -0.36752 0.70157 0.40625 -0.31031 -0.59618 0.029493 -0.39444 -0.5344 -0.12628 -0.16186 0.10217 0.025156 0.087227 -0.079651 -0.57028 0.67582 0.2444 0.77326 -0.25504 -0.19263 -0.29193 -0.57437 0.31766 0.4313 0.17605 -0.54512 0.7036 -0.63739 0.15824 0.020592 0.084221 0.49195 0.0067051 -0.15189 -0.037398 1.1359 -0.50733 0.23859 0.22247 -0.14007 -0.68847 0.33846 -0.06336 -0.43824 -0.26857 0.035754 -0.071788 0.18695 0.096124 0.22356 0.050635 -0.23282 0.055117 -0.61326 0.07295 
置 -0.24795 0.038514 0.32413 0.37488 0.048466 -0.633 -0.40906 0.20538 0.10484 -0.26577 0.16779 -0.18745 -0.5133 -0.5368 0.3487 -0.086702 -0.23333 0.22054 -0.86809 -0.032076 0.25175 -0.51153 -0.5564 -0.64759 0.05314 0.12404 0.25363 -0.21418 -0.076095 -0.28889 -0.10653 -0.24529 0.38822 -0.32618 0.084662 0.24171 -0.16337 -0.3794 -0.19438 0.32344 0.037761 -0.22829 -0.16514 -0.051547 0.074693 -0.3798 0.65809 0.41033 -0.13585 -0.43212 -0.10167 -0.46949 -0.48322 -0.010912 -0.0067864 -0.042303 0.040534 0.048582 -0.32251 -0.28095 0.51406 -0.067173 0.80526 -0.16974 -0.10523 -0.12115 -0.79627 0.12905 0.24459 0.21597 -0.61023 0.53224 -0.52782 0.012679 -0.076354 0.22376 0.46236 -0.0237 -0.062242 -0.14776 1.0519 -0.56528 0.28542 0.14982 -0.057765 -0.56451 0.31061 -0.30415 -0.29762 -0.35615 0.055417 -0.032768 0.3349 -0.10978 0.068334 0.16811 -0.20588 0.059218 -0.6724 0.12826 
一 0.88217 -1.1255 -0.38538 -0.18422 0.91712 0.28658 -0.18137 -0.25069 0.56353 0.43653 0.076445 0.69017 0.61482 0.12681 -0.17096 -0.51538 0.079191 -0.12417 -0.66636 -0.26542 0.26933 0.69306 -0.38117 0.39791 0.59456 0.235 -0.16122 -1.3737 0.12649 0.62742 -0.14988 0.20299 0.28781 1.2316 -1.215 -0.25183 -0.62497 0.95901 0.73558 -0.89649 -0.29529 -0.85173 -0.37682 -0.5933 -1.339 -0.060375 0.54626 -0.11127 -0.23893 0.65108 -0.67388 -0.20991 -0.1842 0.64085 -0.64798 -0.10442 -0.54986 -0.47994 -1.0848 -0.92393 2.0186 0.39566 1.5242 -0.34808 0.27534 -0.80199 0.018989 -0.77094 0.70973 1.2265 -1.6592 0.7388 -0.90635 -0.0044168 1.353 0.33141 0.17616 0.8024 -1.0765 -0.32777 1.0558 1.5238 0.52664 1.457 0.088456 -0.035973 1.2598 0.20001 0.52146 0.16436 -0.44261 0.8879 0.59326 -0.5629 -0.48094 0.51487 -0.33144 1.2175 -2.2401 0.40762 
次 0.42131 -0.062795 -0.057683 -0.09517 0.28514 0.18879 0.095897 -0.091109 0.17185 -0.32479 0.3952 -0.017977 -0.32359 0.26991 0.16643 -0.12001 0.075205 0.071624 -0.4412 0.33911 -0.012331 0.073486 0.043829 0.11881 -0.16791 0.075819 0.11683 0.022864 0.17454 -0.049725 -0.2369 -0.030532 -0.24042 0.0044653 -0.21811 -0.034896 -0.0066648 -0.4424 -0.97161 0.11996 0.32044 -0.26536 -0.17555 -0.13566 0.24596 -0.27933 0.21362 0.19162 0.14151 -0.49258 0.32225 -0.73271 -0.29472 0.10315 0.18086 -0.039847 0.19055 0.15221 0.065009 0.093686 0.47703 0.23155 0.3116 0.17892 0.084518 0.41634 -0.085198 -0.17141 0.19365 -0.13095 -0.23688 -0.4673 -0.021501 0.32855 -0.040164 0.23559 0.029173 -0.19686 0.018393 0.52149 0.5898 0.16159 0.29372 0.033252 -0.66982 0.45732 -0.091507 -0.26898 -0.07729 0.082533 0.22499 -0.21661 0.30358 -0.1832 0.031357 0.17295 -0.39569 0.44863 -1.0894 0.2081 
性 0.11715 -0.25008 0.12329 -0.35904 0.86784 0.58874 -0.50479 -0.58685 -0.061448 0.17698 0.1331 0.032101 -0.22739 0.58995 -0.24648 -0.21282 0.14175 -0.037879 0.045384 0.4278 -0.1117 0.01343 0.065672 0.061012 -0.44002 0.39277 0.024016 0.054413 -0.32908 -0.18806 0.29884 -0.049638 0.63017 0.14873 0.11536 0.18776 0.44396 -0.57982 -0.22607 -0.71442 -0.13905 -0.30472 -0.47362 -0.42469 0.30074 -0.10089 -0.012348 0.1511 -0.26837 0.0050411 0.20688 -0.55792 -0.58537 0.54712 0.31949 -0.16888 0.034928 0.19836 0.39404 0.055279 0.64192 0.4446 1.2113 0.3921 0.51254 -0.27066 -0.40071 -0.26258 -0.021325 -0.37753 -0.64206 0.32204 -0.20372 0.42826 0.11479 0.10944 0.039489 0.0073366 -0.13156 0.038102 0.78571 -0.045138 -0.059242 0.38006 -0.71333 0.1443 -0.34182 0.19752 -0.28807 0.0010027 -0.38799 0.21849 0.38395 0.4191 0.027834 0.11323 -0.51005 0.55717 -0.96498 -0.2389 
